package edu.uchicago.cs.java.finalproject.SVG;

import java.awt.*;
import java.awt.geom.*;
import static java.awt.Color.*;
import static java.awt.MultipleGradientPaint.CycleMethod.*;
import static java.awt.MultipleGradientPaint.ColorSpaceType.*;

/**
 * This class has been automatically generated using
 * <a href="https://flamingo.dev.java.net">Flamingo SVG transcoder</a>.
 */
public class BackgroundBigSVG {

    /**
     * Paints the transcoded SVG image on the specified graphics context. You
     * can install a custom transformation on the graphics context to scale the
     * image.
     * 
     * @param g Graphics context.
     */
    public static void paint(Graphics2D g, int x, int y) {
        Shape shape = null;
        
        float origAlpha = 1.0f;
        Composite origComposite = ((Graphics2D)g).getComposite();
        if (origComposite instanceof AlphaComposite) {
            AlphaComposite origAlphaComposite = (AlphaComposite)origComposite;
            if (origAlphaComposite.getRule() == AlphaComposite.SRC_OVER) {
                origAlpha = origAlphaComposite.getAlpha();
            }
        }
        
        java.util.LinkedList<AffineTransform> transformations = new java.util.LinkedList<AffineTransform>();
        

        // 

        // _0

        // _0_0

        // _0_0_0

        // _0_1

        // _0_1_0

        // _0_1_1
        shape = new Rectangle2D.Double(0,0, 3200, 1200);
        g.setPaint(new Color(0x040F18));
        g.fill(shape);

        // _0_1_2
        g.setComposite(AlphaComposite.getInstance(3, 0.3f * origAlpha));

        // _0_1_2_0
        shape = new Ellipse2D.Double(164.5050811767578, 31.784271240234375, 1.6419999599456787, 1.6419999599456787);
        g.setPaint(darkGray);
        g.fill(shape);
        g.setComposite(AlphaComposite.getInstance(3, 1 * origAlpha));



        // _0_1_2_1
        shape = new Ellipse2D.Double(103.30007934570312, 11.578269958496094, 2.813999891281128, 2.813999891281128);
        g.fill(shape);

        // _0_1_2_2
        shape = new Ellipse2D.Double(184.36007690429688, 127.63827514648438, 1.6, 1.6);
        g.fill(shape);
        g.setComposite(AlphaComposite.getInstance(3, 0.2f * origAlpha));

        // _0_1_2_3
        shape = new Ellipse2D.Double(53.36008071899414, 33.63827133178711, 1.6, 1.6);
        g.fill(shape);
        g.setComposite(AlphaComposite.getInstance(3, 1 * origAlpha));

        // _0_1_2_4
        shape = new Ellipse2D.Double(406.3600769042969, 251.63827514648438, 1.6, 1.6);
        g.fill(shape);
        g.setComposite(AlphaComposite.getInstance(3, 0.3f * origAlpha));

        // _0_1_2_5
        shape = new Ellipse2D.Double(83.88707733154297, 185.16627502441406, 4, 4);
        g.fill(shape);
        g.setComposite(AlphaComposite.getInstance(3, 1 * origAlpha));

        // _0_1_2_6
        shape = new Ellipse2D.Double(96.88707733154297, 91.16626739501953, 4, 4);
        g.fill(shape);
        g.setComposite(AlphaComposite.getInstance(3, 0.3f * origAlpha));

        // _0_1_2_7
        shape = new Ellipse2D.Double(122.88707733154297, 217.16627502441406, 4, 4);
        g.fill(shape);
        g.setComposite(AlphaComposite.getInstance(3, 1 * origAlpha));

        // _0_1_2_8
        shape = new Ellipse2D.Double(122.54307556152344, 270.822265625, 2.187999963760376, 2.187999963760376);
        g.fill(shape);

        // _0_1_2_9
        shape = new Ellipse2D.Double(191.4580841064453, 216.73626708984375, 1.9700000286102295, 1.9700000286102295);
        g.fill(shape);

        // _0_1_2_10
        shape = new Ellipse2D.Double(249.92507934570312, 350.2042541503906, 3.624000072479248, 3.624000072479248);
        g.fill(shape);

        // _0_1_2_11
        shape = new Ellipse2D.Double(273.9250793457031, 498.2042541503906, 3.624000072479248, 3.624000072479248);
        g.fill(shape);

        // _0_1_2_12
        shape = new Ellipse2D.Double(169.8870849609375, 388.166259765625, 4, 4);
        g.fill(shape);

        // _0_1_2_13
        shape = new Ellipse2D.Double(165.8870849609375, 314.166259765625, 4, 4);
        g.fill(shape);

        // _0_1_2_14
        shape = new Ellipse2D.Double(34.887081146240234, 241.16627502441406, 4, 4);
        g.fill(shape);

        // _0_1_2_15
        shape = new Ellipse2D.Double(32.887081146240234, 145.16627502441406, 4, 4);
        g.fill(shape);

        // _0_1_2_16
        shape = new Ellipse2D.Double(362.8870849609375, 74.16626739501953, 4, 4);
        g.fill(shape);
        g.setComposite(AlphaComposite.getInstance(3, 0.6f * origAlpha));

        // _0_1_2_17
        shape = new Ellipse2D.Double(114.88707733154297, 474.166259765625, 4, 4);
        g.fill(shape);
        g.setComposite(AlphaComposite.getInstance(3, 1 * origAlpha));

        // _0_1_2_18
        shape = new Ellipse2D.Double(239.8870849609375, 582.166259765625, 4, 4);
        g.fill(shape);

        // _0_1_2_19
        shape = new Ellipse2D.Double(275.8870849609375, 621.166259765625, 4, 4);
        g.fill(shape);

        // _0_1_2_20
        shape = new Ellipse2D.Double(153.5430908203125, 559.822265625, 2.187999963760376, 2.187999963760376);
        g.fill(shape);

        // _0_1_2_21
        shape = new Ellipse2D.Double(65.88707733154297, 530.166259765625, 4, 4);
        g.fill(shape);

        // _0_1_2_22
        shape = new Ellipse2D.Double(208.8870849609375, 420.166259765625, 4, 4);
        g.fill(shape);
        g.setComposite(AlphaComposite.getInstance(3, 0.6f * origAlpha));

        // _0_1_2_23
        shape = new Ellipse2D.Double(63.88707733154297, 409.166259765625, 4, 4);
        g.fill(shape);
        g.setComposite(AlphaComposite.getInstance(3, 0.8f * origAlpha));

        // _0_1_2_24
        shape = new Ellipse2D.Double(95.88707733154297, 354.166259765625, 7, 7);
        g.fill(shape);
        g.setComposite(AlphaComposite.getInstance(3, 0.6f * origAlpha));

        // _0_1_2_25
        shape = new Ellipse2D.Double(180.8870849609375, 489.166259765625, 7, 7);
        g.fill(shape);
        g.setComposite(AlphaComposite.getInstance(3, 1 * origAlpha));

        // _0_1_2_26
        shape = new Ellipse2D.Double(10.505080223083496, 544.7843017578125, 1.6419999599456787, 1.6419999599456787);
        g.fill(shape);

        // _0_1_2_27
        shape = new Ellipse2D.Double(17.300081253051758, 407.5782470703125, 2.813999891281128, 2.813999891281128);
        g.fill(shape);

        // _0_1_2_28
        shape = new Ellipse2D.Double(158.36007690429688, 604.6382446289062, 1.6, 1.6);
        g.fill(shape);

        // _0_1_2_29
        shape = new Ellipse2D.Double(455.3600769042969, 674.6383056640625, 1.6, 1.6);
        g.fill(shape);

        // _0_1_2_30
        shape = new Ellipse2D.Double(231.36007690429688, 691.6383056640625, 1.6, 1.6);
        g.fill(shape);

        // _0_1_2_31
        shape = new Ellipse2D.Double(1185.5050048828125, 538.7843017578125, 1.6419999599456787, 1.6419999599456787);
        g.fill(shape);

        // _0_1_2_32
        shape = new Ellipse2D.Double(188.8870849609375, 67.16626739501953, 4, 4);
        g.fill(shape);

        // _0_1_2_33
        shape = new Ellipse2D.Double(1180.8870849609375, 653.166259765625, 4, 4);
        g.fill(shape);
        g.setComposite(AlphaComposite.getInstance(3, 0.3f * origAlpha));

        // _0_1_2_34
        shape = new Ellipse2D.Double(1135.3599853515625, 581.6382446289062, 1.6, 1.6);
        g.fill(shape);

        // _0_1_2_35
        shape = new Ellipse2D.Double(57.887081146240234, 662.166259765625, 4, 4);
        g.fill(shape);

        // _0_1_2_36
        shape = new Ellipse2D.Double(24.8870792388916, 694.166259765625, 4, 4);
        g.fill(shape);
        g.setComposite(AlphaComposite.getInstance(3, 1 * origAlpha));

        // _0_1_2_37
        shape = new Ellipse2D.Double(46.887081146240234, 731.166259765625, 4, 4);
        g.fill(shape);

        // _0_1_2_38
        shape = new Ellipse2D.Double(444.8870849609375, 147.16627502441406, 4, 4);
        g.fill(shape);

        // _0_1_2_39
        shape = new Ellipse2D.Double(318.8870849609375, 143.16627502441406, 4, 4);
        g.fill(shape);

        // _0_1_2_40
        shape = new Ellipse2D.Double(81.88707733154297, 602.166259765625, 4, 4);
        g.fill(shape);

        // _0_1_2_41
        shape = new Ellipse2D.Double(112.88707733154297, 713.166259765625, 4, 4);
        g.fill(shape);

        // _0_1_2_42
        shape = new Ellipse2D.Double(114.88707733154297, 660.166259765625, 4, 4);
        g.fill(shape);

        // _0_1_2_43
        shape = new Ellipse2D.Double(165.4580841064453, 693.7362670898438, 1.9700000286102295, 1.9700000286102295);
        g.fill(shape);

        // _0_1_2_44
        shape = new Ellipse2D.Double(209.4580841064453, 734.7362670898438, 1.9700000286102295, 1.9700000286102295);
        g.fill(shape);

        // _0_1_2_45
        shape = new Ellipse2D.Double(27.458080291748047, 600.7362670898438, 1.9700000286102295, 1.9700000286102295);
        g.fill(shape);

        // _0_1_2_46
        shape = new Ellipse2D.Double(483.9250793457031, 617.2042846679688, 3.624000072479248, 3.624000072479248);
        g.fill(shape);
        g.setComposite(AlphaComposite.getInstance(3, 0.3f * origAlpha));

        // _0_1_2_47
        shape = new Ellipse2D.Double(543.925048828125, 690.2042846679688, 3.624000072479248, 3.624000072479248);
        g.fill(shape);

        // _0_1_2_48
        shape = new Ellipse2D.Double(387.8870849609375, 679.166259765625, 4, 4);
        g.fill(shape);
        g.setComposite(AlphaComposite.getInstance(3, 0.6f * origAlpha));

        // _0_1_2_49
        shape = new Ellipse2D.Double(411.8870849609375, 619.166259765625, 4, 4);
        g.fill(shape);
        g.setComposite(AlphaComposite.getInstance(3, 1 * origAlpha));

        // _0_1_2_50
        shape = new Ellipse2D.Double(442.8870849609375, 553.166259765625, 4, 4);
        g.fill(shape);
        g.setComposite(AlphaComposite.getInstance(3, 0.3f * origAlpha));

        // _0_1_2_51
        shape = new Ellipse2D.Double(426.8870849609375, 711.166259765625, 4, 4);
        g.fill(shape);
        g.setComposite(AlphaComposite.getInstance(3, 1 * origAlpha));

        // _0_1_2_52
        shape = new Ellipse2D.Double(313.8870849609375, 645.166259765625, 7, 7);
        g.fill(shape);

        // _0_1_2_53
        shape = new Ellipse2D.Double(540.7431030273438, 183.0222625732422, 4.50600004196167, 4.50600004196167);
        g.fill(shape);

        // _0_1_2_54
        shape = new Ellipse2D.Double(459.86407470703125, 226.14227294921875, 5.0960001945495605, 5.0960001945495605);
        g.fill(shape);

        // _0_1_2_55
        shape = new Ellipse2D.Double(571.8641357421875, 75.14227294921875, 5.0960001945495605, 5.0960001945495605);
        g.fill(shape);
        g.setComposite(AlphaComposite.getInstance(3, 0.6f * origAlpha));

        // _0_1_2_56
        shape = new Ellipse2D.Double(296.8870849609375, 390.166259765625, 4, 4);
        g.fill(shape);
        g.setComposite(AlphaComposite.getInstance(3, 1 * origAlpha));

        // _0_1_2_57
        shape = new Ellipse2D.Double(547.8870849609375, 290.166259765625, 4, 4);
        g.fill(shape);

        // _0_1_2_58
        shape = new Ellipse2D.Double(152.74307250976562, 178.0222625732422, 4.50600004196167, 4.50600004196167);
        g.fill(shape);

        // _0_1_2_59
        shape = new Ellipse2D.Double(306.86407470703125, 271.14227294921875, 5.0960001945495605, 5.0960001945495605);
        g.fill(shape);
        g.setComposite(AlphaComposite.getInstance(3, 0.6f * origAlpha));

        // _0_1_2_60
        shape = new Ellipse2D.Double(357.86407470703125, 419.14227294921875, 5.0960001945495605, 5.0960001945495605);
        g.fill(shape);
        g.setComposite(AlphaComposite.getInstance(3, 1 * origAlpha));

        // _0_1_2_61
        shape = new Ellipse2D.Double(360.8870849609375, 352.166259765625, 4, 4);
        g.fill(shape);
        g.setComposite(AlphaComposite.getInstance(3, 0.6f * origAlpha));

        // _0_1_2_62
        shape = new Ellipse2D.Double(537.8870849609375, 598.166259765625, 4, 4);
        g.fill(shape);

        // _0_1_2_63
        shape = new Ellipse2D.Double(598.8641357421875, 627.1422729492188, 5.0960001945495605, 5.0960001945495605);
        g.fill(shape);
        g.setComposite(AlphaComposite.getInstance(3, 1 * origAlpha));

        // _0_1_2_64
        shape = new Ellipse2D.Double(601.8870849609375, 560.166259765625, 4, 4);
        g.fill(shape);

        // _0_1_2_65
        shape = new Ellipse2D.Double(500.51409912109375, 340.79327392578125, 1.7719999551773071, 1.7719999551773071);
        g.fill(shape);

        // _0_1_2_66
        shape = new Ellipse2D.Double(449.51409912109375, 292.79327392578125, 1.7719999551773071, 1.7719999551773071);
        g.fill(shape);

        // _0_1_2_67
        shape = new Ellipse2D.Double(410.90509033203125, 315.18426513671875, 4.9720001220703125, 4.9720001220703125);
        g.fill(shape);

        // _0_1_2_68
        shape = new Ellipse2D.Double(452.86407470703125, 27.142269134521484, 5.0960001945495605, 5.0960001945495605);
        g.fill(shape);

        // _0_1_2_69
        shape = new Ellipse2D.Double(149.86407470703125, 88.14227294921875, 5.0960001945495605, 5.0960001945495605);
        g.fill(shape);

        // _0_1_2_70
        shape = new Ellipse2D.Double(255.8870849609375, 113.16626739501953, 4, 4);
        g.fill(shape);

        // _0_1_2_71
        shape = new Ellipse2D.Double(277.8870849609375, 68.16626739501953, 4, 4);
        g.fill(shape);

        // _0_1_2_72
        shape = new Ellipse2D.Double(270.8870849609375, 205.16627502441406, 4, 4);
        g.fill(shape);
        g.setComposite(AlphaComposite.getInstance(3, 0.6f * origAlpha));

        // _0_1_2_73
        shape = new Ellipse2D.Double(500.90509033203125, 86.18427276611328, 4.9720001220703125, 4.9720001220703125);
        g.fill(shape);
        g.setComposite(AlphaComposite.getInstance(3, 0.3f * origAlpha));

        // _0_1_2_74
        shape = new Ellipse2D.Double(545.592041015625, 428.8712463378906, 4.49399995803833, 4.49399995803833);
        g.fill(shape);
        g.setComposite(AlphaComposite.getInstance(3, 1 * origAlpha));

        // _0_1_2_75
        shape = new Ellipse2D.Double(446.8870849609375, 488.166259765625, 4, 4);
        g.fill(shape);

        // _0_1_2_76
        shape = new Ellipse2D.Double(355.8870849609375, 540.166259765625, 4, 4);
        g.fill(shape);

        // _0_1_2_77
        shape = new Ellipse2D.Double(470.8870849609375, 428.166259765625, 4, 4);
        g.fill(shape);
        g.setComposite(AlphaComposite.getInstance(3, 0.6f * origAlpha));

        // _0_1_2_78
        shape = new Ellipse2D.Double(515.8870849609375, 516.166259765625, 4, 4);
        g.fill(shape);
        g.setComposite(AlphaComposite.getInstance(3, 0.3f * origAlpha));

        // _0_1_2_79
        shape = new Ellipse2D.Double(784.505126953125, 31.784271240234375, 1.6419999599456787, 1.6419999599456787);
        g.fill(shape);
        g.setComposite(AlphaComposite.getInstance(3, 1 * origAlpha));

        // _0_1_2_80
        shape = new Ellipse2D.Double(723.3001098632812, 11.578269958496094, 2.813999891281128, 2.813999891281128);
        g.fill(shape);

        // _0_1_2_81
        shape = new Ellipse2D.Double(804.360107421875, 127.63827514648438, 1.6, 1.6);
        g.fill(shape);

        // _0_1_2_82
        shape = new Ellipse2D.Double(999.360107421875, 200.63827514648438, 1.6, 1.6);
        g.fill(shape);
        g.setComposite(AlphaComposite.getInstance(3, 0.3f * origAlpha));

        // _0_1_2_83
        shape = new Ellipse2D.Double(703.8870849609375, 185.16627502441406, 4, 4);
        g.fill(shape);
        g.setComposite(AlphaComposite.getInstance(3, 1 * origAlpha));

        // _0_1_2_84
        shape = new Ellipse2D.Double(716.8870849609375, 91.16626739501953, 4, 4);
        g.fill(shape);
        g.setComposite(AlphaComposite.getInstance(3, 0.3f * origAlpha));

        // _0_1_2_85
        shape = new Ellipse2D.Double(742.8870849609375, 217.16627502441406, 4, 4);
        g.fill(shape);
        g.setComposite(AlphaComposite.getInstance(3, 1 * origAlpha));

        // _0_1_2_86
        shape = new Ellipse2D.Double(742.5430908203125, 270.822265625, 2.187999963760376, 2.187999963760376);
        g.fill(shape);

        // _0_1_2_87
        shape = new Ellipse2D.Double(811.4581298828125, 216.73626708984375, 1.9700000286102295, 1.9700000286102295);
        g.fill(shape);

        // _0_1_2_88
        shape = new Ellipse2D.Double(869.925048828125, 350.2042541503906, 3.624000072479248, 3.624000072479248);
        g.fill(shape);

        // _0_1_2_89
        shape = new Ellipse2D.Double(893.925048828125, 498.2042541503906, 3.624000072479248, 3.624000072479248);
        g.fill(shape);

        // _0_1_2_90
        shape = new Ellipse2D.Double(789.8870849609375, 388.166259765625, 4, 4);
        g.fill(shape);

        // _0_1_2_91
        shape = new Ellipse2D.Double(785.8870849609375, 314.166259765625, 4, 4);
        g.fill(shape);

        // _0_1_2_92
        shape = new Ellipse2D.Double(654.8870849609375, 241.16627502441406, 4, 4);
        g.fill(shape);

        // _0_1_2_93
        shape = new Ellipse2D.Double(613.8870849609375, 113.16626739501953, 4, 4);
        g.fill(shape);

        // _0_1_2_94
        shape = new Ellipse2D.Double(652.8870849609375, 145.16627502441406, 4, 4);
        g.fill(shape);

        // _0_1_2_95
        shape = new Ellipse2D.Double(617.5430908203125, 197.82228088378906, 2.187999963760376, 2.187999963760376);
        g.fill(shape);

        // _0_1_2_96
        shape = new Ellipse2D.Double(982.8870849609375, 74.16626739501953, 4, 4);
        g.fill(shape);
        g.setComposite(AlphaComposite.getInstance(3, 0.6f * origAlpha));

        // _0_1_2_97
        shape = new Ellipse2D.Double(734.8870849609375, 474.166259765625, 4, 4);
        g.fill(shape);
        g.setComposite(AlphaComposite.getInstance(3, 1 * origAlpha));

        // _0_1_2_98
        shape = new Ellipse2D.Double(859.8870849609375, 582.166259765625, 4, 4);
        g.fill(shape);

        // _0_1_2_99
        shape = new Ellipse2D.Double(895.8870849609375, 621.166259765625, 4, 4);
        g.fill(shape);

        // _0_1_2_100
        shape = new Ellipse2D.Double(773.5430908203125, 559.822265625, 2.187999963760376, 2.187999963760376);
        g.fill(shape);

        // _0_1_2_101
        shape = new Ellipse2D.Double(685.8870849609375, 530.166259765625, 4, 4);
        g.fill(shape);

        // _0_1_2_102
        shape = new Ellipse2D.Double(828.8870849609375, 420.166259765625, 4, 4);
        g.fill(shape);
        g.setComposite(AlphaComposite.getInstance(3, 0.6f * origAlpha));

        // _0_1_2_103
        shape = new Ellipse2D.Double(683.8870849609375, 409.166259765625, 4, 4);
        g.fill(shape);
        g.setComposite(AlphaComposite.getInstance(3, 0.8f * origAlpha));

        // _0_1_2_104
        shape = new Ellipse2D.Double(715.8870849609375, 354.166259765625, 7, 7);
        g.fill(shape);
        g.setComposite(AlphaComposite.getInstance(3, 0.6f * origAlpha));

        // _0_1_2_105
        shape = new Ellipse2D.Double(800.8870849609375, 489.166259765625, 7, 7);
        g.fill(shape);
        g.setComposite(AlphaComposite.getInstance(3, 1 * origAlpha));

        // _0_1_2_106
        shape = new Ellipse2D.Double(630.5050659179688, 544.7843017578125, 1.6419999599456787, 1.6419999599456787);
        g.fill(shape);

        // _0_1_2_107
        shape = new Ellipse2D.Double(637.3001098632812, 407.5782470703125, 2.813999891281128, 2.813999891281128);
        g.fill(shape);

        // _0_1_2_108
        shape = new Ellipse2D.Double(778.360107421875, 604.6382446289062, 1.6, 1.6);
        g.fill(shape);

        // _0_1_2_109
        shape = new Ellipse2D.Double(1075.3599853515625, 674.6383056640625, 1.6, 1.6);
        g.fill(shape);

        // _0_1_2_110
        shape = new Ellipse2D.Double(851.360107421875, 691.6383056640625, 1.6, 1.6);
        g.fill(shape);
        g.setComposite(AlphaComposite.getInstance(3, 0.3f * origAlpha));

        // _0_1_2_111
        shape = new Ellipse2D.Double(608.360107421875, 65.63827514648438, 1.6, 1.6);
        g.fill(shape);

        // _0_1_2_112
        shape = new Ellipse2D.Double(677.8870849609375, 662.166259765625, 4, 4);
        g.fill(shape);

        // _0_1_2_113
        shape = new Ellipse2D.Double(644.8870849609375, 694.166259765625, 4, 4);
        g.fill(shape);
        g.setComposite(AlphaComposite.getInstance(3, 1 * origAlpha));

        // _0_1_2_114
        shape = new Ellipse2D.Double(666.8870849609375, 731.166259765625, 4, 4);
        g.fill(shape);

        // _0_1_2_115
        shape = new Ellipse2D.Double(1064.8870849609375, 147.16627502441406, 4, 4);
        g.fill(shape);

        // _0_1_2_116
        shape = new Ellipse2D.Double(938.8870849609375, 143.16627502441406, 4, 4);
        g.fill(shape);

        // _0_1_2_117
        shape = new Ellipse2D.Double(701.8870849609375, 602.166259765625, 4, 4);
        g.fill(shape);

        // _0_1_2_118
        shape = new Ellipse2D.Double(732.8870849609375, 713.166259765625, 4, 4);
        g.fill(shape);

        // _0_1_2_119
        shape = new Ellipse2D.Double(734.8870849609375, 660.166259765625, 4, 4);
        g.fill(shape);

        // _0_1_2_120
        shape = new Ellipse2D.Double(610.5430908203125, 450.822265625, 2.187999963760376, 2.187999963760376);
        g.fill(shape);

        // _0_1_2_121
        shape = new Ellipse2D.Double(785.4581298828125, 693.7362670898438, 1.9700000286102295, 1.9700000286102295);
        g.fill(shape);

        // _0_1_2_122
        shape = new Ellipse2D.Double(829.4581298828125, 734.7362670898438, 1.9700000286102295, 1.9700000286102295);
        g.fill(shape);

        // _0_1_2_123
        shape = new Ellipse2D.Double(647.4580688476562, 600.7362670898438, 1.9700000286102295, 1.9700000286102295);
        g.fill(shape);

        // _0_1_2_124
        shape = new Ellipse2D.Double(1103.925048828125, 617.2042846679688, 3.624000072479248, 3.624000072479248);
        g.fill(shape);
        g.setComposite(AlphaComposite.getInstance(3, 0.3f * origAlpha));

        // _0_1_2_125
        shape = new Ellipse2D.Double(1163.925048828125, 690.2042846679688, 3.624000072479248, 3.624000072479248);
        g.fill(shape);
        g.setComposite(AlphaComposite.getInstance(3, 1 * origAlpha));

        // _0_1_2_126
        shape = new Ellipse2D.Double(1240.8870849609375, 711.166259765625, 4, 4);
        g.fill(shape);

        // _0_1_2_127
        shape = new Ellipse2D.Double(973.360107421875, 730.6383056640625, 1.6, 1.6);
        g.fill(shape);
        g.setComposite(AlphaComposite.getInstance(3, 0.3f * origAlpha));

        // _0_1_2_128
        shape = new Ellipse2D.Double(1223.925048828125, 748.2042846679688, 3.624000072479248, 3.624000072479248);
        g.fill(shape);

        // _0_1_2_129
        shape = new Ellipse2D.Double(1007.8870849609375, 679.166259765625, 4, 4);
        g.fill(shape);
        g.setComposite(AlphaComposite.getInstance(3, 0.6f * origAlpha));

        // _0_1_2_130
        shape = new Ellipse2D.Double(1031.8870849609375, 619.166259765625, 4, 4);
        g.fill(shape);
        g.setComposite(AlphaComposite.getInstance(3, 1 * origAlpha));

        // _0_1_2_131
        shape = new Ellipse2D.Double(1062.8870849609375, 553.166259765625, 4, 4);
        g.fill(shape);
        g.setComposite(AlphaComposite.getInstance(3, 0.3f * origAlpha));

        // _0_1_2_132
        shape = new Ellipse2D.Double(1046.8870849609375, 711.166259765625, 4, 4);
        g.fill(shape);
        g.setComposite(AlphaComposite.getInstance(3, 1 * origAlpha));

        // _0_1_2_133
        shape = new Ellipse2D.Double(933.8870849609375, 645.166259765625, 7, 7);
        g.fill(shape);

        // _0_1_2_134
        shape = new Ellipse2D.Double(1160.7430419921875, 183.0222625732422, 4.50600004196167, 4.50600004196167);
        g.fill(shape);

        // _0_1_2_135
        shape = new Ellipse2D.Double(1079.8641357421875, 226.14227294921875, 5.0960001945495605, 5.0960001945495605);
        g.fill(shape);

        // _0_1_2_136
        shape = new Ellipse2D.Double(1191.8641357421875, 75.14227294921875, 5.0960001945495605, 5.0960001945495605);
        g.fill(shape);
        g.setComposite(AlphaComposite.getInstance(3, 0.6f * origAlpha));

        // _0_1_2_137
        shape = new Ellipse2D.Double(916.8870849609375, 390.166259765625, 4, 4);
        g.fill(shape);
        g.setComposite(AlphaComposite.getInstance(3, 1 * origAlpha));

        // _0_1_2_138
        shape = new Ellipse2D.Double(1167.8870849609375, 290.166259765625, 4, 4);
        g.fill(shape);

        // _0_1_2_139
        shape = new Ellipse2D.Double(772.7431030273438, 178.0222625732422, 4.50600004196167, 4.50600004196167);
        g.fill(shape);

        // _0_1_2_140
        shape = new Ellipse2D.Double(926.8641357421875, 271.14227294921875, 5.0960001945495605, 5.0960001945495605);
        g.fill(shape);
        g.setComposite(AlphaComposite.getInstance(3, 0.6f * origAlpha));

        // _0_1_2_141
        shape = new Ellipse2D.Double(977.8641357421875, 419.14227294921875, 5.0960001945495605, 5.0960001945495605);
        g.fill(shape);

        // _0_1_2_142
        shape = new Ellipse2D.Double(1006.8641357421875, 473.14227294921875, 5.0960001945495605, 5.0960001945495605);
        g.fill(shape);
        g.setComposite(AlphaComposite.getInstance(3, 0.8f * origAlpha));

        // _0_1_2_143
        shape = new Ellipse2D.Double(605.8870849609375, 352.166259765625, 4, 4);
        g.fill(shape);
        g.setComposite(AlphaComposite.getInstance(3, 1 * origAlpha));

        // _0_1_2_144
        shape = new Ellipse2D.Double(980.8870849609375, 352.166259765625, 4, 4);
        g.fill(shape);

        // _0_1_2_145
        shape = new Ellipse2D.Double(1120.51416015625, 340.79327392578125, 1.7719999551773071, 1.7719999551773071);
        g.fill(shape);

        // _0_1_2_146
        shape = new Ellipse2D.Double(1069.51416015625, 292.79327392578125, 1.7719999551773071, 1.7719999551773071);
        g.fill(shape);

        // _0_1_2_147
        shape = new Ellipse2D.Double(1016.9050903320312, 267.18426513671875, 4.9720001220703125, 4.9720001220703125);
        g.fill(shape);

        // _0_1_2_148
        shape = new Ellipse2D.Double(1072.8641357421875, 27.142269134521484, 5.0960001945495605, 5.0960001945495605);
        g.fill(shape);

        // _0_1_2_149
        shape = new Ellipse2D.Double(769.8641357421875, 88.14227294921875, 5.0960001945495605, 5.0960001945495605);
        g.fill(shape);

        // _0_1_2_150
        shape = new Ellipse2D.Double(875.8870849609375, 113.16626739501953, 4, 4);
        g.fill(shape);

        // _0_1_2_151
        shape = new Ellipse2D.Double(897.8870849609375, 68.16626739501953, 4, 4);
        g.fill(shape);

        // _0_1_2_152
        shape = new Ellipse2D.Double(890.8870849609375, 205.16627502441406, 4, 4);
        g.fill(shape);
        g.setComposite(AlphaComposite.getInstance(3, 0.6f * origAlpha));

        // _0_1_2_153
        shape = new Ellipse2D.Double(1120.9051513671875, 86.18427276611328, 4.9720001220703125, 4.9720001220703125);
        g.fill(shape);
        g.setComposite(AlphaComposite.getInstance(3, 0.3f * origAlpha));

        // _0_1_2_154
        shape = new Ellipse2D.Double(1165.5921630859375, 428.8712463378906, 4.49399995803833, 4.49399995803833);
        g.fill(shape);
        g.setComposite(AlphaComposite.getInstance(3, 1 * origAlpha));

        // _0_1_2_155
        shape = new Ellipse2D.Double(1066.8870849609375, 488.166259765625, 4, 4);
        g.fill(shape);

        // _0_1_2_156
        shape = new Ellipse2D.Double(975.8870849609375, 540.166259765625, 4, 4);
        g.fill(shape);

        // _0_1_2_157
        shape = new Ellipse2D.Double(1090.8870849609375, 428.166259765625, 4, 4);
        g.fill(shape);
        g.setComposite(AlphaComposite.getInstance(3, 0.6f * origAlpha));

        // _0_1_2_158
        shape = new Ellipse2D.Double(1045.8870849609375, 352.166259765625, 4, 4);
        g.fill(shape);

        // _0_1_2_159
        shape = new Ellipse2D.Double(1106.8641357421875, 381.14227294921875, 5.0960001945495605, 5.0960001945495605);
        g.fill(shape);
        g.setComposite(AlphaComposite.getInstance(3, 1 * origAlpha));

        // _0_1_2_160
        shape = new Ellipse2D.Double(1219.8870849609375, 390.166259765625, 4, 4);
        g.fill(shape);
        g.setComposite(AlphaComposite.getInstance(3, 0.6f * origAlpha));

        // _0_1_2_161
        shape = new Ellipse2D.Double(1135.8870849609375, 516.166259765625, 4, 4);
        g.fill(shape);
        g.setComposite(AlphaComposite.getInstance(3, 1 * origAlpha));

        // _0_1_2_162
        shape = new GeneralPath();
        ((GeneralPath) shape).moveTo(943.1271, 599.7812);
        ((GeneralPath) shape).lineTo(943.1481, 599.7102);
        ((GeneralPath) shape).curveTo(943.79407, 599.5352, 944.433, 599.44727, 945.056, 599.7812);
        ((GeneralPath) shape).curveTo(944.41296, 599.7812, 943.76794, 599.7812, 943.1271, 599.7812);
        ((GeneralPath) shape).closePath();

        g.setPaint(new Color(0xB44E00));
        g.fill(shape);

        // _0_1_2_163
        shape = new GeneralPath();
        ((GeneralPath) shape).moveTo(960.9772, 599.6682);
        ((GeneralPath) shape).lineTo(961.0812, 599.68225);
        ((GeneralPath) shape).lineTo(961.046, 599.7832);
        ((GeneralPath) shape).curveTo(960.40295, 599.7832, 959.7611, 599.7832, 959.1161, 599.7832);
        ((GeneralPath) shape).curveTo(959.7191, 599.43115, 960.35, 599.5773, 960.9772, 599.6682);
        ((GeneralPath) shape).closePath();

        g.fill(shape);

        // _0_1_3
        shape = new Ellipse2D.Double(1403.46337890625, 89.29913330078125, 4, 4);
        g.setPaint(darkGray);
        g.fill(shape);

        // _0_1_4
        shape = new Ellipse2D.Double(1358.568359375, 779.4061279296875, 1.6, 1.6);
        g.fill(shape);

        // _0_1_5
        shape = new Ellipse2D.Double(1112.8013916015625, 808.6381225585938, 3.624000072479248, 3.624000072479248);
        g.fill(shape);
        g.setComposite(AlphaComposite.getInstance(3, 0.3f * origAlpha));

        // _0_1_6
        shape = new Ellipse2D.Double(1445.8013916015625, 597.6381225585938, 3.624000072479248, 3.624000072479248);
        g.fill(shape);

        // _0_1_7
        shape = new Ellipse2D.Double(992.4644165039062, 614.2991333007812, 4, 4);
        g.fill(shape);
        g.setComposite(AlphaComposite.getInstance(3, 0.6f * origAlpha));

        // _0_1_8
        shape = new Ellipse2D.Double(1184.46337890625, 806.2991333007812, 4, 4);
        g.fill(shape);
        g.setComposite(AlphaComposite.getInstance(3, 1 * origAlpha));

        // _0_1_9
        shape = new Ellipse2D.Double(135.46340942382812, 777.2991333007812, 4, 4);
        g.fill(shape);
        g.setComposite(AlphaComposite.getInstance(3, 0.6f * origAlpha));

        // _0_1_10
        shape = new Ellipse2D.Double(1451.46337890625, 689.2991333007812, 4, 4);
        g.fill(shape);

        // _0_1_11
        shape = new Ellipse2D.Double(1389.3914794921875, 659.2281494140625, 5.0960001945495605, 5.0960001945495605);
        g.fill(shape);
        g.setComposite(AlphaComposite.getInstance(3, 1 * origAlpha));

        // _0_1_12
        shape = new Ellipse2D.Double(1387.46337890625, 727.2991333007812, 4, 4);
        g.fill(shape);

        // _0_1_13
        shape = new Ellipse2D.Double(298.08941650390625, 773.9261474609375, 1.7719999551773071, 1.7719999551773071);
        g.fill(shape);
        g.setComposite(AlphaComposite.getInstance(3, 0.3f * origAlpha));

        // _0_1_14
        shape = new Ellipse2D.Double(281.16741943359375, 799.004150390625, 4.495999813079834, 4.495999813079834);
        g.fill(shape);
        g.setComposite(AlphaComposite.getInstance(3, 1 * origAlpha));

        // _0_1_15
        shape = new Ellipse2D.Double(83.46340942382812, 798.2991333007812, 4, 4);
        g.fill(shape);

        // _0_1_16
        shape = new Ellipse2D.Double(206.46340942382812, 798.2991333007812, 4, 4);
        g.fill(shape);

        // _0_1_17
        shape = new Ellipse2D.Double(975.5004272460938, 797.3370971679688, 3.624000072479248, 3.624000072479248);
        g.fill(shape);

        // _0_1_18
        shape = new Ellipse2D.Double(630.4634399414062, 781.2991333007812, 4, 4);
        g.fill(shape);
        g.setComposite(AlphaComposite.getInstance(3, 0.8f * origAlpha));

        // _0_1_19
        shape = new Ellipse2D.Double(513.4634399414062, 787.2991333007812, 7, 7);
        g.fill(shape);
        g.setComposite(AlphaComposite.getInstance(3, 0.6f * origAlpha));

        // _0_1_20
        shape = new Ellipse2D.Double(1165.46337890625, 752.2991333007812, 7, 7);
        g.fill(shape);
        g.setComposite(AlphaComposite.getInstance(3, 1 * origAlpha));

        // _0_1_21
        shape = new Ellipse2D.Double(350.8734130859375, 797.7100830078125, 2.815999984741211, 2.815999984741211);
        g.fill(shape);
        g.setComposite(AlphaComposite.getInstance(3, 0.3f * origAlpha));

        // _0_1_22
        shape = new Ellipse2D.Double(1311.46337890625, 625.2991333007812, 4, 4);
        g.fill(shape);

        // _0_1_23
        shape = new Ellipse2D.Double(1344.46337890625, 593.2991333007812, 4, 4);
        g.fill(shape);
        g.setComposite(AlphaComposite.getInstance(3, 1 * origAlpha));

        // _0_1_24
        shape = new Ellipse2D.Double(1322.46337890625, 556.2991333007812, 4, 4);
        g.fill(shape);

        // _0_1_25
        shape = new Ellipse2D.Double(1287.46337890625, 685.2991333007812, 4, 4);
        g.fill(shape);

        // _0_1_26
        shape = new Ellipse2D.Double(1256.46337890625, 574.2991333007812, 4, 4);
        g.fill(shape);

        // _0_1_27
        shape = new Ellipse2D.Double(1254.46337890625, 627.2991333007812, 4, 4);
        g.fill(shape);

        // _0_1_28
        shape = new Ellipse2D.Double(368.1194152832031, 745.9551391601562, 2.187999963760376, 2.187999963760376);
        g.fill(shape);

        // _0_1_29
        shape = new Ellipse2D.Double(1343.9224853515625, 688.7601318359375, 1.9700000286102295, 1.9700000286102295);
        g.fill(shape);
        g.setComposite(AlphaComposite.getInstance(3, 0.8f * origAlpha));

        // _0_1_30
        shape = new Ellipse2D.Double(403.4634094238281, 785.2991333007812, 4, 4);
        g.fill(shape);
        g.setComposite(AlphaComposite.getInstance(3, 1 * origAlpha));

        // _0_1_31
        shape = new Ellipse2D.Double(778.4634399414062, 785.2991333007812, 4, 4);
        g.fill(shape);

        // _0_1_32
        shape = new Ellipse2D.Double(918.0894165039062, 773.9261474609375, 1.7719999551773071, 1.7719999551773071);
        g.fill(shape);
        g.setComposite(AlphaComposite.getInstance(3, 0.3f * origAlpha));

        // _0_1_33
        shape = new Ellipse2D.Double(1464.203369140625, 467.0401306152344, 1.6419999599456787, 1.6419999599456787);
        g.fill(shape);
        g.setComposite(AlphaComposite.getInstance(3, 1 * origAlpha));

        // _0_1_34
        shape = new Ellipse2D.Double(1431.203369140625, 809.0401611328125, 1.6419999599456787, 1.6419999599456787);
        g.fill(shape);

        // _0_1_35
        shape = new Ellipse2D.Double(1443.568359375, 359.4061279296875, 1.6, 1.6);
        g.fill(shape);
        g.setComposite(AlphaComposite.getInstance(3, 0.2f * origAlpha));

        // _0_1_36
        shape = new Ellipse2D.Double(1466.568359375, 93.40613555908203, 1.6, 1.6);
        g.fill(shape);
        g.setComposite(AlphaComposite.getInstance(3, 0.3f * origAlpha));

        // _0_1_37
        shape = new Ellipse2D.Double(1256.46337890625, 51.29913330078125, 4, 4);
        g.fill(shape);
        g.setComposite(AlphaComposite.getInstance(3, 1 * origAlpha));

        // _0_1_38
        shape = new Ellipse2D.Double(1427.46337890625, 40.29913330078125, 4, 4);
        g.fill(shape);

        // _0_1_39
        shape = new Ellipse2D.Double(1436.9224853515625, 281.7601623535156, 1.9700000286102295, 1.9700000286102295);
        g.fill(shape);

        // _0_1_40
        shape = new Ellipse2D.Double(1376.8013916015625, 146.6381378173828, 3.624000072479248, 3.624000072479248);
        g.fill(shape);

        // _0_1_41
        shape = new Ellipse2D.Double(1460.46337890625, 182.29913330078125, 4, 4);
        g.fill(shape);

        // _0_1_42
        shape = new Ellipse2D.Double(1387.46337890625, 220.29913330078125, 4, 4);
        g.fill(shape);

        // _0_1_43
        shape = new Ellipse2D.Double(1307.46337890625, 91.29913330078125, 4, 4);
        g.fill(shape);

        // _0_1_44
        shape = new Ellipse2D.Double(1344.619384765625, 40.45513153076172, 2.187999963760376, 2.187999963760376);
        g.fill(shape);

        // _0_1_45
        shape = new Ellipse2D.Double(1279.46337890625, 468.29913330078125, 4, 4);
        g.fill(shape);
        g.setComposite(AlphaComposite.getInstance(3, 0.3f * origAlpha));

        // _0_1_46
        shape = new Ellipse2D.Double(1434.568359375, 735.4061279296875, 1.6, 1.6);
        g.fill(shape);

        // _0_1_47
        shape = new Ellipse2D.Double(1476.568359375, 790.4061279296875, 1.6, 1.6);
        g.fill(shape);
        g.setComposite(AlphaComposite.getInstance(3, 1 * origAlpha));

        // _0_1_48
        shape = new Ellipse2D.Double(1432.2364501953125, 510.0731506347656, 2.815999984741211, 2.815999984741211);
        g.fill(shape);

        // _0_1_49
        shape = new Ellipse2D.Double(1437.46337890625, 429.29913330078125, 4, 4);
        g.fill(shape);

        // _0_1_50
        shape = new Ellipse2D.Double(1307.46337890625, 353.29913330078125, 4, 4);
        g.fill(shape);

        // _0_1_51
        shape = new Ellipse2D.Double(1473.1024169921875, 317.9381408691406, 4.50600004196167, 4.50600004196167);
        g.fill(shape);

        // _0_1_52
        shape = new Ellipse2D.Double(1318.3914794921875, 224.22813415527344, 5.0960001945495605, 5.0960001945495605);
        g.fill(shape);

        // _0_1_53
        shape = new Ellipse2D.Double(1265.46337890625, 144.29913330078125, 4, 4);
        g.fill(shape);

        // _0_1_54
        shape = new Ellipse2D.Double(1374.1024169921875, 495.9381408691406, 4.50600004196167, 4.50600004196167);
        g.fill(shape);

        // _0_1_55
        shape = new Ellipse2D.Double(1475.3914794921875, 407.2281188964844, 5.0960001945495605, 5.0960001945495605);
        g.fill(shape);

        // _0_1_56
        shape = new Ellipse2D.Double(1478.3914794921875, 549.2281494140625, 5.0960001945495605, 5.0960001945495605);
        g.fill(shape);

        // _0_1_57
        shape = new Ellipse2D.Double(1370.46337890625, 383.29913330078125, 4, 4);
        g.fill(shape);

        // _0_1_58
        shape = new Ellipse2D.Double(1348.46337890625, 428.29913330078125, 4, 4);
        g.fill(shape);

        // _0_1_59
        shape = new Ellipse2D.Double(1355.46337890625, 291.29913330078125, 4, 4);
        g.fill(shape);

        // _0_1_60

        // _0_1_61

        // _0_1_62

        // _0_1_63

        // _0_1_64

        // _0_1_65

        // _0_1_66

        // _0_1_67

        // _0_1_68
        g.setComposite(AlphaComposite.getInstance(3, 0.3f * origAlpha));

        // _0_1_68_0
        shape = new Ellipse2D.Double(210.2193603515625, 880.3553466796875, 1.6419999599456787, 1.6419999599456787);
        g.fill(shape);
        g.setComposite(AlphaComposite.getInstance(3, 1 * origAlpha));

        // _0_1_68_1
        shape = new Ellipse2D.Double(149.01437377929688, 860.1493530273438, 2.813999891281128, 2.813999891281128);
        g.fill(shape);

        // _0_1_68_2
        shape = new Ellipse2D.Double(230.07437133789062, 976.2093505859375, 1.6, 1.6);
        g.fill(shape);
        g.setComposite(AlphaComposite.getInstance(3, 0.2f * origAlpha));

        // _0_1_68_3
        shape = new Ellipse2D.Double(99.0743637084961, 882.2093505859375, 1.6, 1.6);
        g.fill(shape);
        g.setComposite(AlphaComposite.getInstance(3, 1 * origAlpha));

        // _0_1_68_4
        shape = new Ellipse2D.Double(452.0743713378906, 1100.2093505859375, 1.6, 1.6);
        g.fill(shape);
        g.setComposite(AlphaComposite.getInstance(3, 0.3f * origAlpha));

        // _0_1_68_5
        shape = new Ellipse2D.Double(129.6013641357422, 1033.7373046875, 4, 4);
        g.fill(shape);
        g.setComposite(AlphaComposite.getInstance(3, 1 * origAlpha));

        // _0_1_68_6
        shape = new Ellipse2D.Double(142.6013641357422, 939.7373657226562, 4, 4);
        g.fill(shape);
        g.setComposite(AlphaComposite.getInstance(3, 0.3f * origAlpha));

        // _0_1_68_7
        shape = new Ellipse2D.Double(168.6013641357422, 1065.7373046875, 4, 4);
        g.fill(shape);
        g.setComposite(AlphaComposite.getInstance(3, 1 * origAlpha));

        // _0_1_68_8
        shape = new Ellipse2D.Double(168.2573699951172, 1119.393310546875, 2.187999963760376, 2.187999963760376);
        g.fill(shape);

        // _0_1_68_9
        shape = new Ellipse2D.Double(237.17236328125, 1065.307373046875, 1.9700000286102295, 1.9700000286102295);
        g.fill(shape);

        // _0_1_68_10
        shape = new Ellipse2D.Double(295.63934326171875, 1198.775390625, 3.624000072479248, 3.624000072479248);
        g.fill(shape);

        // _0_1_68_11
        shape = new Ellipse2D.Double(319.63934326171875, 1346.775390625, 3.624000072479248, 3.624000072479248);
        g.fill(shape);

        // _0_1_68_12
        shape = new Ellipse2D.Double(215.6013641357422, 1236.7373046875, 4, 4);
        g.fill(shape);

        // _0_1_68_13
        shape = new Ellipse2D.Double(211.6013641357422, 1162.7373046875, 4, 4);
        g.fill(shape);

        // _0_1_68_14
        shape = new Ellipse2D.Double(80.60136413574219, 1089.7373046875, 4, 4);
        g.fill(shape);

        // _0_1_68_15
        shape = new Ellipse2D.Double(78.60136413574219, 993.7373657226562, 4, 4);
        g.fill(shape);

        // _0_1_68_16
        shape = new Ellipse2D.Double(408.6013488769531, 922.7373657226562, 4, 4);
        g.fill(shape);
        g.setComposite(AlphaComposite.getInstance(3, 0.6f * origAlpha));

        // _0_1_68_17
        shape = new Ellipse2D.Double(160.6013641357422, 1322.7373046875, 4, 4);
        g.fill(shape);
        g.setComposite(AlphaComposite.getInstance(3, 1 * origAlpha));

        // _0_1_68_18
        shape = new Ellipse2D.Double(285.6013488769531, 1430.7373046875, 4, 4);
        g.fill(shape);

        // _0_1_68_19
        shape = new Ellipse2D.Double(321.6013488769531, 1469.7373046875, 4, 4);
        g.fill(shape);

        // _0_1_68_20
        shape = new Ellipse2D.Double(199.2573699951172, 1408.393310546875, 2.187999963760376, 2.187999963760376);
        g.fill(shape);

        // _0_1_68_21
        shape = new Ellipse2D.Double(111.60136413574219, 1378.7373046875, 4, 4);
        g.fill(shape);

        // _0_1_68_22
        shape = new Ellipse2D.Double(254.60134887695312, 1268.7373046875, 4, 4);
        g.fill(shape);
        g.setComposite(AlphaComposite.getInstance(3, 0.6f * origAlpha));

        // _0_1_68_23
        shape = new Ellipse2D.Double(109.60136413574219, 1257.7373046875, 4, 4);
        g.fill(shape);
        g.setComposite(AlphaComposite.getInstance(3, 0.8f * origAlpha));

        // _0_1_68_24
        shape = new Ellipse2D.Double(141.6013641357422, 1202.7373046875, 7, 7);
        g.fill(shape);
        g.setComposite(AlphaComposite.getInstance(3, 0.6f * origAlpha));

        // _0_1_68_25
        shape = new Ellipse2D.Double(226.6013641357422, 1337.7373046875, 7, 7);
        g.fill(shape);
        g.setComposite(AlphaComposite.getInstance(3, 1 * origAlpha));

        // _0_1_68_26
        shape = new Ellipse2D.Double(56.219364166259766, 1393.3553466796875, 1.6419999599456787, 1.6419999599456787);
        g.fill(shape);

        // _0_1_68_27
        shape = new Ellipse2D.Double(63.01436233520508, 1256.1494140625, 2.813999891281128, 2.813999891281128);
        g.fill(shape);

        // _0_1_68_28
        shape = new Ellipse2D.Double(204.07437133789062, 1453.2093505859375, 1.6, 1.6);
        g.fill(shape);

        // _0_1_68_29
        shape = new Ellipse2D.Double(501.0743713378906, 1523.2093505859375, 1.6, 1.6);
        g.fill(shape);

        // _0_1_68_30
        shape = new Ellipse2D.Double(277.0743713378906, 1540.2093505859375, 1.6, 1.6);
        g.fill(shape);

        // _0_1_68_31
        shape = new Ellipse2D.Double(1231.2193603515625, 1387.3553466796875, 1.6419999599456787, 1.6419999599456787);
        g.fill(shape);

        // _0_1_68_32
        shape = new Ellipse2D.Double(234.6013641357422, 915.7373657226562, 4, 4);
        g.fill(shape);

        // _0_1_68_33
        shape = new Ellipse2D.Double(1226.601318359375, 1501.7373046875, 4, 4);
        g.fill(shape);
        g.setComposite(AlphaComposite.getInstance(3, 0.3f * origAlpha));

        // _0_1_68_34
        shape = new Ellipse2D.Double(1181.0743408203125, 1430.2093505859375, 1.6, 1.6);
        g.fill(shape);

        // _0_1_68_35
        shape = new Ellipse2D.Double(103.60136413574219, 1510.7373046875, 4, 4);
        g.fill(shape);

        // _0_1_68_36
        shape = new Ellipse2D.Double(70.60136413574219, 1542.7373046875, 4, 4);
        g.fill(shape);
        g.setComposite(AlphaComposite.getInstance(3, 1 * origAlpha));

        // _0_1_68_37
        shape = new Ellipse2D.Double(92.60136413574219, 1579.7373046875, 4, 4);
        g.fill(shape);

        // _0_1_68_38
        shape = new Ellipse2D.Double(490.6013488769531, 995.7373657226562, 4, 4);
        g.fill(shape);

        // _0_1_68_39
        shape = new Ellipse2D.Double(364.6013488769531, 991.7373657226562, 4, 4);
        g.fill(shape);

        // _0_1_68_40
        shape = new Ellipse2D.Double(127.60136413574219, 1450.7373046875, 4, 4);
        g.fill(shape);

        // _0_1_68_41
        shape = new Ellipse2D.Double(158.6013641357422, 1561.7373046875, 4, 4);
        g.fill(shape);

        // _0_1_68_42
        shape = new Ellipse2D.Double(160.6013641357422, 1508.7373046875, 4, 4);
        g.fill(shape);

        // _0_1_68_43
        shape = new Ellipse2D.Double(211.17236328125, 1542.307373046875, 1.9700000286102295, 1.9700000286102295);
        g.fill(shape);

        // _0_1_68_44
        shape = new Ellipse2D.Double(255.17237854003906, 1583.307373046875, 1.9700000286102295, 1.9700000286102295);
        g.fill(shape);

        // _0_1_68_45
        shape = new Ellipse2D.Double(73.17236328125, 1449.307373046875, 1.9700000286102295, 1.9700000286102295);
        g.fill(shape);

        // _0_1_68_46
        shape = new Ellipse2D.Double(529.6393432617188, 1465.775390625, 3.624000072479248, 3.624000072479248);
        g.fill(shape);
        g.setComposite(AlphaComposite.getInstance(3, 0.3f * origAlpha));

        // _0_1_68_47
        shape = new Ellipse2D.Double(589.6393432617188, 1538.775390625, 3.624000072479248, 3.624000072479248);
        g.fill(shape);

        // _0_1_68_48
        shape = new Ellipse2D.Double(433.6013488769531, 1527.7373046875, 4, 4);
        g.fill(shape);
        g.setComposite(AlphaComposite.getInstance(3, 0.6f * origAlpha));

        // _0_1_68_49
        shape = new Ellipse2D.Double(457.6013488769531, 1467.7373046875, 4, 4);
        g.fill(shape);
        g.setComposite(AlphaComposite.getInstance(3, 1 * origAlpha));

        // _0_1_68_50
        shape = new Ellipse2D.Double(488.6013488769531, 1401.7373046875, 4, 4);
        g.fill(shape);
        g.setComposite(AlphaComposite.getInstance(3, 0.3f * origAlpha));

        // _0_1_68_51
        shape = new Ellipse2D.Double(472.6013488769531, 1559.7373046875, 4, 4);
        g.fill(shape);
        g.setComposite(AlphaComposite.getInstance(3, 1 * origAlpha));

        // _0_1_68_52
        shape = new Ellipse2D.Double(359.6013488769531, 1493.7373046875, 7, 7);
        g.fill(shape);

        // _0_1_68_53
        shape = new Ellipse2D.Double(586.4573974609375, 1031.59326171875, 4.50600004196167, 4.50600004196167);
        g.fill(shape);

        // _0_1_68_54
        shape = new Ellipse2D.Double(505.578369140625, 1074.71337890625, 5.0960001945495605, 5.0960001945495605);
        g.fill(shape);

        // _0_1_68_55
        shape = new Ellipse2D.Double(617.578369140625, 923.71337890625, 5.0960001945495605, 5.0960001945495605);
        g.fill(shape);
        g.setComposite(AlphaComposite.getInstance(3, 0.6f * origAlpha));

        // _0_1_68_56
        shape = new Ellipse2D.Double(342.6013488769531, 1238.7373046875, 4, 4);
        g.fill(shape);
        g.setComposite(AlphaComposite.getInstance(3, 1 * origAlpha));

        // _0_1_68_57
        shape = new Ellipse2D.Double(593.6013793945312, 1138.7373046875, 4, 4);
        g.fill(shape);

        // _0_1_68_58
        shape = new Ellipse2D.Double(198.4573516845703, 1026.59326171875, 4.50600004196167, 4.50600004196167);
        g.fill(shape);

        // _0_1_68_59
        shape = new Ellipse2D.Double(352.578369140625, 1119.71337890625, 5.0960001945495605, 5.0960001945495605);
        g.fill(shape);
        g.setComposite(AlphaComposite.getInstance(3, 0.6f * origAlpha));

        // _0_1_68_60
        shape = new Ellipse2D.Double(403.578369140625, 1267.71337890625, 5.0960001945495605, 5.0960001945495605);
        g.fill(shape);
        g.setComposite(AlphaComposite.getInstance(3, 1 * origAlpha));

        // _0_1_68_61
        shape = new Ellipse2D.Double(406.6013488769531, 1200.7373046875, 4, 4);
        g.fill(shape);
        g.setComposite(AlphaComposite.getInstance(3, 0.6f * origAlpha));

        // _0_1_68_62
        shape = new Ellipse2D.Double(583.6013793945312, 1446.7373046875, 4, 4);
        g.fill(shape);

        // _0_1_68_63
        shape = new Ellipse2D.Double(644.578369140625, 1475.71337890625, 5.0960001945495605, 5.0960001945495605);
        g.fill(shape);
        g.setComposite(AlphaComposite.getInstance(3, 1 * origAlpha));

        // _0_1_68_64
        shape = new Ellipse2D.Double(647.6013793945312, 1408.7373046875, 4, 4);
        g.fill(shape);

        // _0_1_68_65
        shape = new Ellipse2D.Double(546.2283935546875, 1189.3643798828125, 1.7719999551773071, 1.7719999551773071);
        g.fill(shape);

        // _0_1_68_66
        shape = new Ellipse2D.Double(495.2283630371094, 1141.3643798828125, 1.7719999551773071, 1.7719999551773071);
        g.fill(shape);

        // _0_1_68_67
        shape = new Ellipse2D.Double(456.619384765625, 1163.75537109375, 4.9720001220703125, 4.9720001220703125);
        g.fill(shape);

        // _0_1_68_68
        shape = new Ellipse2D.Double(498.578369140625, 875.71337890625, 5.0960001945495605, 5.0960001945495605);
        g.fill(shape);

        // _0_1_68_69
        shape = new Ellipse2D.Double(195.57835388183594, 936.71337890625, 5.0960001945495605, 5.0960001945495605);
        g.fill(shape);

        // _0_1_68_70
        shape = new Ellipse2D.Double(301.6013488769531, 961.7373657226562, 4, 4);
        g.fill(shape);

        // _0_1_68_71
        shape = new Ellipse2D.Double(323.6013488769531, 916.7373657226562, 4, 4);
        g.fill(shape);

        // _0_1_68_72
        shape = new Ellipse2D.Double(316.6013488769531, 1053.7373046875, 4, 4);
        g.fill(shape);
        g.setComposite(AlphaComposite.getInstance(3, 0.6f * origAlpha));

        // _0_1_68_73
        shape = new Ellipse2D.Double(546.6193237304688, 934.7553100585938, 4.9720001220703125, 4.9720001220703125);
        g.fill(shape);
        g.setComposite(AlphaComposite.getInstance(3, 0.3f * origAlpha));

        // _0_1_68_74
        shape = new Ellipse2D.Double(591.3063354492188, 1277.4423828125, 4.49399995803833, 4.49399995803833);
        g.fill(shape);
        g.setComposite(AlphaComposite.getInstance(3, 1 * origAlpha));

        // _0_1_68_75
        shape = new Ellipse2D.Double(492.6013488769531, 1336.7373046875, 4, 4);
        g.fill(shape);

        // _0_1_68_76
        shape = new Ellipse2D.Double(401.6013488769531, 1388.7373046875, 4, 4);
        g.fill(shape);

        // _0_1_68_77
        shape = new Ellipse2D.Double(516.6013793945312, 1276.7373046875, 4, 4);
        g.fill(shape);
        g.setComposite(AlphaComposite.getInstance(3, 0.6f * origAlpha));

        // _0_1_68_78
        shape = new Ellipse2D.Double(561.6013793945312, 1364.7373046875, 4, 4);
        g.fill(shape);
        g.setComposite(AlphaComposite.getInstance(3, 0.3f * origAlpha));

        // _0_1_68_79
        shape = new Ellipse2D.Double(830.2193603515625, 880.3553466796875, 1.6419999599456787, 1.6419999599456787);
        g.fill(shape);
        g.setComposite(AlphaComposite.getInstance(3, 1 * origAlpha));

        // _0_1_68_80
        shape = new Ellipse2D.Double(769.014404296875, 860.1493530273438, 2.813999891281128, 2.813999891281128);
        g.fill(shape);

        // _0_1_68_81
        shape = new Ellipse2D.Double(850.0743408203125, 976.2093505859375, 1.6, 1.6);
        g.fill(shape);

        // _0_1_68_82
        shape = new Ellipse2D.Double(1045.0743408203125, 1049.2093505859375, 1.6, 1.6);
        g.fill(shape);
        g.setComposite(AlphaComposite.getInstance(3, 0.3f * origAlpha));

        // _0_1_68_83
        shape = new Ellipse2D.Double(749.6013793945312, 1033.7373046875, 4, 4);
        g.fill(shape);
        g.setComposite(AlphaComposite.getInstance(3, 1 * origAlpha));

        // _0_1_68_84
        shape = new Ellipse2D.Double(762.6013793945312, 939.7373657226562, 4, 4);
        g.fill(shape);
        g.setComposite(AlphaComposite.getInstance(3, 0.3f * origAlpha));

        // _0_1_68_85
        shape = new Ellipse2D.Double(788.6013793945312, 1065.7373046875, 4, 4);
        g.fill(shape);
        g.setComposite(AlphaComposite.getInstance(3, 1 * origAlpha));

        // _0_1_68_86
        shape = new Ellipse2D.Double(788.2573852539062, 1119.393310546875, 2.187999963760376, 2.187999963760376);
        g.fill(shape);

        // _0_1_68_87
        shape = new Ellipse2D.Double(857.17236328125, 1065.307373046875, 1.9700000286102295, 1.9700000286102295);
        g.fill(shape);

        // _0_1_68_88
        shape = new Ellipse2D.Double(915.6393432617188, 1198.775390625, 3.624000072479248, 3.624000072479248);
        g.fill(shape);

        // _0_1_68_89
        shape = new Ellipse2D.Double(939.6393432617188, 1346.775390625, 3.624000072479248, 3.624000072479248);
        g.fill(shape);

        // _0_1_68_90
        shape = new Ellipse2D.Double(835.6013793945312, 1236.7373046875, 4, 4);
        g.fill(shape);

        // _0_1_68_91
        shape = new Ellipse2D.Double(831.6013793945312, 1162.7373046875, 4, 4);
        g.fill(shape);

        // _0_1_68_92
        shape = new Ellipse2D.Double(700.6013793945312, 1089.7373046875, 4, 4);
        g.fill(shape);

        // _0_1_68_93
        shape = new Ellipse2D.Double(659.6013793945312, 961.7373657226562, 4, 4);
        g.fill(shape);

        // _0_1_68_94
        shape = new Ellipse2D.Double(698.6013793945312, 993.7373657226562, 4, 4);
        g.fill(shape);

        // _0_1_68_95
        shape = new Ellipse2D.Double(663.2573852539062, 1046.393310546875, 2.187999963760376, 2.187999963760376);
        g.fill(shape);

        // _0_1_68_96
        shape = new Ellipse2D.Double(1028.601318359375, 922.7373657226562, 4, 4);
        g.fill(shape);
        g.setComposite(AlphaComposite.getInstance(3, 0.6f * origAlpha));

        // _0_1_68_97
        shape = new Ellipse2D.Double(780.6013793945312, 1322.7373046875, 4, 4);
        g.fill(shape);
        g.setComposite(AlphaComposite.getInstance(3, 1 * origAlpha));

        // _0_1_68_98
        shape = new Ellipse2D.Double(905.6013793945312, 1430.7373046875, 4, 4);
        g.fill(shape);

        // _0_1_68_99
        shape = new Ellipse2D.Double(941.6013793945312, 1469.7373046875, 4, 4);
        g.fill(shape);

        // _0_1_68_100
        shape = new Ellipse2D.Double(819.2573852539062, 1408.393310546875, 2.187999963760376, 2.187999963760376);
        g.fill(shape);

        // _0_1_68_101
        shape = new Ellipse2D.Double(731.6013793945312, 1378.7373046875, 4, 4);
        g.fill(shape);

        // _0_1_68_102
        shape = new Ellipse2D.Double(874.6013793945312, 1268.7373046875, 4, 4);
        g.fill(shape);
        g.setComposite(AlphaComposite.getInstance(3, 0.6f * origAlpha));

        // _0_1_68_103
        shape = new Ellipse2D.Double(729.6013793945312, 1257.7373046875, 4, 4);
        g.fill(shape);
        g.setComposite(AlphaComposite.getInstance(3, 0.8f * origAlpha));

        // _0_1_68_104
        shape = new Ellipse2D.Double(761.6013793945312, 1202.7373046875, 7, 7);
        g.fill(shape);
        g.setComposite(AlphaComposite.getInstance(3, 0.6f * origAlpha));

        // _0_1_68_105
        shape = new Ellipse2D.Double(846.6013793945312, 1337.7373046875, 7, 7);
        g.fill(shape);
        g.setComposite(AlphaComposite.getInstance(3, 1 * origAlpha));

        // _0_1_68_106
        shape = new Ellipse2D.Double(676.2193603515625, 1393.3553466796875, 1.6419999599456787, 1.6419999599456787);
        g.fill(shape);

        // _0_1_68_107
        shape = new Ellipse2D.Double(683.014404296875, 1256.1494140625, 2.813999891281128, 2.813999891281128);
        g.fill(shape);

        // _0_1_68_108
        shape = new Ellipse2D.Double(824.0743408203125, 1453.2093505859375, 1.6, 1.6);
        g.fill(shape);

        // _0_1_68_109
        shape = new Ellipse2D.Double(1121.0743408203125, 1523.2093505859375, 1.6, 1.6);
        g.fill(shape);

        // _0_1_68_110
        shape = new Ellipse2D.Double(897.0743408203125, 1540.2093505859375, 1.6, 1.6);
        g.fill(shape);
        g.setComposite(AlphaComposite.getInstance(3, 0.3f * origAlpha));

        // _0_1_68_111
        shape = new Ellipse2D.Double(654.0743408203125, 914.2093505859375, 1.6, 1.6);
        g.fill(shape);

        // _0_1_68_112
        shape = new Ellipse2D.Double(723.6013793945312, 1510.7373046875, 4, 4);
        g.fill(shape);

        // _0_1_68_113
        shape = new Ellipse2D.Double(690.6013793945312, 1542.7373046875, 4, 4);
        g.fill(shape);
        g.setComposite(AlphaComposite.getInstance(3, 1 * origAlpha));

        // _0_1_68_114
        shape = new Ellipse2D.Double(712.6013793945312, 1579.7373046875, 4, 4);
        g.fill(shape);

        // _0_1_68_115
        shape = new Ellipse2D.Double(1110.601318359375, 995.7373657226562, 4, 4);
        g.fill(shape);

        // _0_1_68_116
        shape = new Ellipse2D.Double(984.6013793945312, 991.7373657226562, 4, 4);
        g.fill(shape);

        // _0_1_68_117
        shape = new Ellipse2D.Double(747.6013793945312, 1450.7373046875, 4, 4);
        g.fill(shape);

        // _0_1_68_118
        shape = new Ellipse2D.Double(778.6013793945312, 1561.7373046875, 4, 4);
        g.fill(shape);

        // _0_1_68_119
        shape = new Ellipse2D.Double(780.6013793945312, 1508.7373046875, 4, 4);
        g.fill(shape);

        // _0_1_68_120
        shape = new Ellipse2D.Double(656.2573852539062, 1299.393310546875, 2.187999963760376, 2.187999963760376);
        g.fill(shape);

        // _0_1_68_121
        shape = new Ellipse2D.Double(831.17236328125, 1542.307373046875, 1.9700000286102295, 1.9700000286102295);
        g.fill(shape);

        // _0_1_68_122
        shape = new Ellipse2D.Double(875.17236328125, 1583.307373046875, 1.9700000286102295, 1.9700000286102295);
        g.fill(shape);

        // _0_1_68_123
        shape = new Ellipse2D.Double(693.17236328125, 1449.307373046875, 1.9700000286102295, 1.9700000286102295);
        g.fill(shape);

        // _0_1_68_124
        shape = new Ellipse2D.Double(1149.639404296875, 1465.775390625, 3.624000072479248, 3.624000072479248);
        g.fill(shape);
        g.setComposite(AlphaComposite.getInstance(3, 0.3f * origAlpha));

        // _0_1_68_125
        shape = new Ellipse2D.Double(1209.639404296875, 1538.775390625, 3.624000072479248, 3.624000072479248);
        g.fill(shape);
        g.setComposite(AlphaComposite.getInstance(3, 1 * origAlpha));

        // _0_1_68_126
        shape = new Ellipse2D.Double(1286.601318359375, 1559.7373046875, 4, 4);
        g.fill(shape);

        // _0_1_68_127
        shape = new Ellipse2D.Double(1019.0744018554688, 1579.2093505859375, 1.6, 1.6);
        g.fill(shape);
        g.setComposite(AlphaComposite.getInstance(3, 0.3f * origAlpha));

        // _0_1_68_128
        shape = new Ellipse2D.Double(1269.639404296875, 1596.775390625, 3.624000072479248, 3.624000072479248);
        g.fill(shape);

        // _0_1_68_129
        shape = new Ellipse2D.Double(1053.601318359375, 1527.7373046875, 4, 4);
        g.fill(shape);
        g.setComposite(AlphaComposite.getInstance(3, 0.6f * origAlpha));

        // _0_1_68_130
        shape = new Ellipse2D.Double(1077.601318359375, 1467.7373046875, 4, 4);
        g.fill(shape);
        g.setComposite(AlphaComposite.getInstance(3, 1 * origAlpha));

        // _0_1_68_131
        shape = new Ellipse2D.Double(1108.601318359375, 1401.7373046875, 4, 4);
        g.fill(shape);
        g.setComposite(AlphaComposite.getInstance(3, 0.3f * origAlpha));

        // _0_1_68_132
        shape = new Ellipse2D.Double(1092.601318359375, 1559.7373046875, 4, 4);
        g.fill(shape);
        g.setComposite(AlphaComposite.getInstance(3, 1 * origAlpha));

        // _0_1_68_133
        shape = new Ellipse2D.Double(979.6013793945312, 1493.7373046875, 7, 7);
        g.fill(shape);

        // _0_1_68_134
        shape = new Ellipse2D.Double(1206.457275390625, 1031.59326171875, 4.50600004196167, 4.50600004196167);
        g.fill(shape);

        // _0_1_68_135
        shape = new Ellipse2D.Double(1125.578369140625, 1074.71337890625, 5.0960001945495605, 5.0960001945495605);
        g.fill(shape);

        // _0_1_68_136
        shape = new Ellipse2D.Double(1237.578369140625, 923.71337890625, 5.0960001945495605, 5.0960001945495605);
        g.fill(shape);
        g.setComposite(AlphaComposite.getInstance(3, 0.6f * origAlpha));

        // _0_1_68_137
        shape = new Ellipse2D.Double(962.6013793945312, 1238.7373046875, 4, 4);
        g.fill(shape);
        g.setComposite(AlphaComposite.getInstance(3, 1 * origAlpha));

        // _0_1_68_138
        shape = new Ellipse2D.Double(1213.601318359375, 1138.7373046875, 4, 4);
        g.fill(shape);

        // _0_1_68_139
        shape = new Ellipse2D.Double(818.4573974609375, 1026.59326171875, 4.50600004196167, 4.50600004196167);
        g.fill(shape);

        // _0_1_68_140
        shape = new Ellipse2D.Double(972.578369140625, 1119.71337890625, 5.0960001945495605, 5.0960001945495605);
        g.fill(shape);
        g.setComposite(AlphaComposite.getInstance(3, 0.6f * origAlpha));

        // _0_1_68_141
        shape = new Ellipse2D.Double(1023.578369140625, 1267.71337890625, 5.0960001945495605, 5.0960001945495605);
        g.fill(shape);

        // _0_1_68_142
        shape = new Ellipse2D.Double(1052.578369140625, 1321.71337890625, 5.0960001945495605, 5.0960001945495605);
        g.fill(shape);
        g.setComposite(AlphaComposite.getInstance(3, 0.8f * origAlpha));

        // _0_1_68_143
        shape = new Ellipse2D.Double(651.6013793945312, 1200.7373046875, 4, 4);
        g.fill(shape);
        g.setComposite(AlphaComposite.getInstance(3, 1 * origAlpha));

        // _0_1_68_144
        shape = new Ellipse2D.Double(1026.601318359375, 1200.7373046875, 4, 4);
        g.fill(shape);

        // _0_1_68_145
        shape = new Ellipse2D.Double(1166.2283935546875, 1189.3643798828125, 1.7719999551773071, 1.7719999551773071);
        g.fill(shape);

        // _0_1_68_146
        shape = new Ellipse2D.Double(1115.2283935546875, 1141.3643798828125, 1.7719999551773071, 1.7719999551773071);
        g.fill(shape);

        // _0_1_68_147
        shape = new Ellipse2D.Double(1062.619384765625, 1115.75537109375, 4.9720001220703125, 4.9720001220703125);
        g.fill(shape);

        // _0_1_68_148
        shape = new Ellipse2D.Double(1118.578369140625, 875.71337890625, 5.0960001945495605, 5.0960001945495605);
        g.fill(shape);

        // _0_1_68_149
        shape = new Ellipse2D.Double(815.578369140625, 936.71337890625, 5.0960001945495605, 5.0960001945495605);
        g.fill(shape);

        // _0_1_68_150
        shape = new Ellipse2D.Double(921.6013793945312, 961.7373657226562, 4, 4);
        g.fill(shape);

        // _0_1_68_151
        shape = new Ellipse2D.Double(943.6013793945312, 916.7373657226562, 4, 4);
        g.fill(shape);

        // _0_1_68_152
        shape = new Ellipse2D.Double(936.6013793945312, 1053.7373046875, 4, 4);
        g.fill(shape);
        g.setComposite(AlphaComposite.getInstance(3, 0.6f * origAlpha));

        // _0_1_68_153
        shape = new Ellipse2D.Double(1166.619384765625, 934.7553100585938, 4.9720001220703125, 4.9720001220703125);
        g.fill(shape);
        g.setComposite(AlphaComposite.getInstance(3, 0.3f * origAlpha));

        // _0_1_68_154
        shape = new Ellipse2D.Double(1211.306396484375, 1277.4423828125, 4.49399995803833, 4.49399995803833);
        g.fill(shape);
        g.setComposite(AlphaComposite.getInstance(3, 1 * origAlpha));

        // _0_1_68_155
        shape = new Ellipse2D.Double(1112.601318359375, 1336.7373046875, 4, 4);
        g.fill(shape);

        // _0_1_68_156
        shape = new Ellipse2D.Double(1021.6013793945312, 1388.7373046875, 4, 4);
        g.fill(shape);

        // _0_1_68_157
        shape = new Ellipse2D.Double(1136.601318359375, 1276.7373046875, 4, 4);
        g.fill(shape);
        g.setComposite(AlphaComposite.getInstance(3, 0.6f * origAlpha));

        // _0_1_68_158
        shape = new Ellipse2D.Double(1091.601318359375, 1200.7373046875, 4, 4);
        g.fill(shape);

        // _0_1_68_159
        shape = new Ellipse2D.Double(1152.578369140625, 1229.71337890625, 5.0960001945495605, 5.0960001945495605);
        g.fill(shape);
        g.setComposite(AlphaComposite.getInstance(3, 1 * origAlpha));

        // _0_1_68_160
        shape = new Ellipse2D.Double(1265.601318359375, 1238.7373046875, 4, 4);
        g.fill(shape);
        g.setComposite(AlphaComposite.getInstance(3, 0.6f * origAlpha));

        // _0_1_68_161
        shape = new Ellipse2D.Double(1181.601318359375, 1364.7373046875, 4, 4);
        g.fill(shape);
        g.setComposite(AlphaComposite.getInstance(3, 1 * origAlpha));

        // _0_1_68_162
        shape = new GeneralPath();
        ((GeneralPath) shape).moveTo(988.8412, 1448.3523);
        ((GeneralPath) shape).lineTo(988.8622, 1448.2814);
        ((GeneralPath) shape).curveTo(989.5082, 1448.1064, 990.1471, 1448.0183, 990.77014, 1448.3523);
        ((GeneralPath) shape).curveTo(990.1271, 1448.3523, 989.48206, 1448.3523, 988.8412, 1448.3523);
        ((GeneralPath) shape).closePath();

        g.setPaint(new Color(0xB44E00));
        g.fill(shape);

        // _0_1_68_163
        shape = new GeneralPath();
        ((GeneralPath) shape).moveTo(1006.6913, 1448.2393);
        ((GeneralPath) shape).lineTo(1006.7953, 1448.2533);
        ((GeneralPath) shape).lineTo(1006.76013, 1448.3542);
        ((GeneralPath) shape).curveTo(1006.11707, 1448.3542, 1005.4752, 1448.3542, 1004.8302, 1448.3542);
        ((GeneralPath) shape).curveTo(1005.4332, 1448.0023, 1006.0641, 1448.1483, 1006.6913, 1448.2393);
        ((GeneralPath) shape).closePath();

        g.fill(shape);

        // _0_1_69
        g.setComposite(AlphaComposite.getInstance(3, 0.3f * origAlpha));

        // _0_1_69_0
        shape = new Ellipse2D.Double(1650.21875, 40.35570526123047, 1.6419999599456787, 1.6419999599456787);
        g.setPaint(darkGray);
        g.fill(shape);
        g.setComposite(AlphaComposite.getInstance(3, 1 * origAlpha));

        // _0_1_69_1
        shape = new Ellipse2D.Double(1589.0137939453125, 20.149703979492188, 2.813999891281128, 2.813999891281128);
        g.fill(shape);

        // _0_1_69_2
        shape = new Ellipse2D.Double(1670.07373046875, 136.20970153808594, 1.6, 1.6);
        g.fill(shape);
        g.setComposite(AlphaComposite.getInstance(3, 0.2f * origAlpha));

        // _0_1_69_3
        shape = new Ellipse2D.Double(1539.07373046875, 42.2097053527832, 1.6, 1.6);
        g.fill(shape);
        g.setComposite(AlphaComposite.getInstance(3, 1 * origAlpha));

        // _0_1_69_4
        shape = new Ellipse2D.Double(1892.07373046875, 260.209716796875, 1.6, 1.6);
        g.fill(shape);
        g.setComposite(AlphaComposite.getInstance(3, 0.3f * origAlpha));

        // _0_1_69_5
        shape = new Ellipse2D.Double(1569.6007080078125, 193.73770141601562, 4, 4);
        g.fill(shape);
        g.setComposite(AlphaComposite.getInstance(3, 1 * origAlpha));

        // _0_1_69_6
        shape = new Ellipse2D.Double(1582.6007080078125, 99.73770141601562, 4, 4);
        g.fill(shape);
        g.setComposite(AlphaComposite.getInstance(3, 0.3f * origAlpha));

        // _0_1_69_7
        shape = new Ellipse2D.Double(1608.6007080078125, 225.73770141601562, 4, 4);
        g.fill(shape);
        g.setComposite(AlphaComposite.getInstance(3, 1 * origAlpha));

        // _0_1_69_8
        shape = new Ellipse2D.Double(1608.2567138671875, 279.3937072753906, 2.187999963760376, 2.187999963760376);
        g.fill(shape);

        // _0_1_69_9
        shape = new Ellipse2D.Double(1677.1717529296875, 225.30770874023438, 1.9700000286102295, 1.9700000286102295);
        g.fill(shape);

        // _0_1_69_10
        shape = new Ellipse2D.Double(1735.638671875, 358.77569580078125, 3.624000072479248, 3.624000072479248);
        g.fill(shape);

        // _0_1_69_11
        shape = new Ellipse2D.Double(1759.638671875, 506.77569580078125, 3.624000072479248, 3.624000072479248);
        g.fill(shape);

        // _0_1_69_12
        shape = new Ellipse2D.Double(1655.6007080078125, 396.7377014160156, 4, 4);
        g.fill(shape);

        // _0_1_69_13
        shape = new Ellipse2D.Double(1651.6007080078125, 322.7377014160156, 4, 4);
        g.fill(shape);

        // _0_1_69_14
        shape = new Ellipse2D.Double(1520.6007080078125, 249.73770141601562, 4, 4);
        g.fill(shape);

        // _0_1_69_15
        shape = new Ellipse2D.Double(1518.6007080078125, 153.73770141601562, 4, 4);
        g.fill(shape);

        // _0_1_69_16
        shape = new Ellipse2D.Double(1848.6007080078125, 82.73770141601562, 4, 4);
        g.fill(shape);
        g.setComposite(AlphaComposite.getInstance(3, 0.6f * origAlpha));

        // _0_1_69_17
        shape = new Ellipse2D.Double(1600.6007080078125, 482.7377014160156, 4, 4);
        g.fill(shape);
        g.setComposite(AlphaComposite.getInstance(3, 1 * origAlpha));

        // _0_1_69_18
        shape = new Ellipse2D.Double(1725.6007080078125, 590.7377319335938, 4, 4);
        g.fill(shape);

        // _0_1_69_19
        shape = new Ellipse2D.Double(1761.6007080078125, 629.7377319335938, 4, 4);
        g.fill(shape);

        // _0_1_69_20
        shape = new Ellipse2D.Double(1639.2567138671875, 568.3937377929688, 2.187999963760376, 2.187999963760376);
        g.fill(shape);

        // _0_1_69_21
        shape = new Ellipse2D.Double(1551.6007080078125, 538.7377319335938, 4, 4);
        g.fill(shape);

        // _0_1_69_22
        shape = new Ellipse2D.Double(1694.6007080078125, 428.7377014160156, 4, 4);
        g.fill(shape);
        g.setComposite(AlphaComposite.getInstance(3, 0.6f * origAlpha));

        // _0_1_69_23
        shape = new Ellipse2D.Double(1549.6007080078125, 417.7377014160156, 4, 4);
        g.fill(shape);
        g.setComposite(AlphaComposite.getInstance(3, 0.8f * origAlpha));

        // _0_1_69_24
        shape = new Ellipse2D.Double(1581.6007080078125, 362.7377014160156, 7, 7);
        g.fill(shape);
        g.setComposite(AlphaComposite.getInstance(3, 0.6f * origAlpha));

        // _0_1_69_25
        shape = new Ellipse2D.Double(1666.6007080078125, 497.7377014160156, 7, 7);
        g.fill(shape);
        g.setComposite(AlphaComposite.getInstance(3, 1 * origAlpha));

        // _0_1_69_26
        shape = new Ellipse2D.Double(1496.21875, 553.355712890625, 1.6419999599456787, 1.6419999599456787);
        g.fill(shape);

        // _0_1_69_27
        shape = new Ellipse2D.Double(1503.0137939453125, 416.1496887207031, 2.813999891281128, 2.813999891281128);
        g.fill(shape);

        // _0_1_69_28
        shape = new Ellipse2D.Double(1644.07373046875, 613.209716796875, 1.6, 1.6);
        g.fill(shape);

        // _0_1_69_29
        shape = new Ellipse2D.Double(1941.07373046875, 683.209716796875, 1.6, 1.6);
        g.fill(shape);

        // _0_1_69_30
        shape = new Ellipse2D.Double(1717.07373046875, 700.209716796875, 1.6, 1.6);
        g.fill(shape);

        // _0_1_69_31
        shape = new Ellipse2D.Double(2671.21875, 547.355712890625, 1.6419999599456787, 1.6419999599456787);
        g.fill(shape);

        // _0_1_69_32
        shape = new Ellipse2D.Double(1674.6007080078125, 75.73770141601562, 4, 4);
        g.fill(shape);

        // _0_1_69_33
        shape = new Ellipse2D.Double(2666.600830078125, 661.7377319335938, 4, 4);
        g.fill(shape);
        g.setComposite(AlphaComposite.getInstance(3, 0.3f * origAlpha));

        // _0_1_69_34
        shape = new Ellipse2D.Double(2621.07373046875, 590.209716796875, 1.6, 1.6);
        g.fill(shape);

        // _0_1_69_35
        shape = new Ellipse2D.Double(1543.6007080078125, 670.7377319335938, 4, 4);
        g.fill(shape);

        // _0_1_69_36
        shape = new Ellipse2D.Double(1510.6007080078125, 702.7377319335938, 4, 4);
        g.fill(shape);
        g.setComposite(AlphaComposite.getInstance(3, 1 * origAlpha));

        // _0_1_69_37
        shape = new Ellipse2D.Double(1532.6007080078125, 739.7377319335938, 4, 4);
        g.fill(shape);

        // _0_1_69_38
        shape = new Ellipse2D.Double(1930.6007080078125, 155.73770141601562, 4, 4);
        g.fill(shape);

        // _0_1_69_39
        shape = new Ellipse2D.Double(1804.6007080078125, 151.73770141601562, 4, 4);
        g.fill(shape);

        // _0_1_69_40
        shape = new Ellipse2D.Double(1567.6007080078125, 610.7377319335938, 4, 4);
        g.fill(shape);

        // _0_1_69_41
        shape = new Ellipse2D.Double(1598.6007080078125, 721.7377319335938, 4, 4);
        g.fill(shape);

        // _0_1_69_42
        shape = new Ellipse2D.Double(1600.6007080078125, 668.7377319335938, 4, 4);
        g.fill(shape);

        // _0_1_69_43
        shape = new Ellipse2D.Double(1651.1717529296875, 702.3077392578125, 1.9700000286102295, 1.9700000286102295);
        g.fill(shape);

        // _0_1_69_44
        shape = new Ellipse2D.Double(1695.1717529296875, 743.3077392578125, 1.9700000286102295, 1.9700000286102295);
        g.fill(shape);

        // _0_1_69_45
        shape = new Ellipse2D.Double(1513.1717529296875, 609.3077392578125, 1.9700000286102295, 1.9700000286102295);
        g.fill(shape);

        // _0_1_69_46
        shape = new Ellipse2D.Double(1969.638671875, 625.7756958007812, 3.624000072479248, 3.624000072479248);
        g.fill(shape);
        g.setComposite(AlphaComposite.getInstance(3, 0.3f * origAlpha));

        // _0_1_69_47
        shape = new Ellipse2D.Double(2029.638671875, 698.7756958007812, 3.624000072479248, 3.624000072479248);
        g.fill(shape);

        // _0_1_69_48
        shape = new Ellipse2D.Double(1873.6007080078125, 687.7377319335938, 4, 4);
        g.fill(shape);
        g.setComposite(AlphaComposite.getInstance(3, 0.6f * origAlpha));

        // _0_1_69_49
        shape = new Ellipse2D.Double(1897.6007080078125, 627.7377319335938, 4, 4);
        g.fill(shape);
        g.setComposite(AlphaComposite.getInstance(3, 1 * origAlpha));

        // _0_1_69_50
        shape = new Ellipse2D.Double(1928.6007080078125, 561.7377319335938, 4, 4);
        g.fill(shape);
        g.setComposite(AlphaComposite.getInstance(3, 0.3f * origAlpha));

        // _0_1_69_51
        shape = new Ellipse2D.Double(1912.6007080078125, 719.7377319335938, 4, 4);
        g.fill(shape);
        g.setComposite(AlphaComposite.getInstance(3, 1 * origAlpha));

        // _0_1_69_52
        shape = new Ellipse2D.Double(1799.6007080078125, 653.7377319335938, 7, 7);
        g.fill(shape);

        // _0_1_69_53
        shape = new Ellipse2D.Double(2026.4566650390625, 191.5937042236328, 4.50600004196167, 4.50600004196167);
        g.fill(shape);

        // _0_1_69_54
        shape = new Ellipse2D.Double(1945.5777587890625, 234.7136993408203, 5.0960001945495605, 5.0960001945495605);
        g.fill(shape);

        // _0_1_69_55
        shape = new Ellipse2D.Double(2057.57763671875, 83.71370697021484, 5.0960001945495605, 5.0960001945495605);
        g.fill(shape);
        g.setComposite(AlphaComposite.getInstance(3, 0.6f * origAlpha));

        // _0_1_69_56
        shape = new Ellipse2D.Double(1782.6007080078125, 398.7377014160156, 4, 4);
        g.fill(shape);
        g.setComposite(AlphaComposite.getInstance(3, 1 * origAlpha));

        // _0_1_69_57
        shape = new Ellipse2D.Double(2033.6007080078125, 298.7377014160156, 4, 4);
        g.fill(shape);

        // _0_1_69_58
        shape = new Ellipse2D.Double(1638.4566650390625, 186.5937042236328, 4.50600004196167, 4.50600004196167);
        g.fill(shape);

        // _0_1_69_59
        shape = new Ellipse2D.Double(1792.5777587890625, 279.7137145996094, 5.0960001945495605, 5.0960001945495605);
        g.fill(shape);
        g.setComposite(AlphaComposite.getInstance(3, 0.6f * origAlpha));

        // _0_1_69_60
        shape = new Ellipse2D.Double(1843.5777587890625, 427.7137145996094, 5.0960001945495605, 5.0960001945495605);
        g.fill(shape);
        g.setComposite(AlphaComposite.getInstance(3, 1 * origAlpha));

        // _0_1_69_61
        shape = new Ellipse2D.Double(1846.6007080078125, 360.7377014160156, 4, 4);
        g.fill(shape);
        g.setComposite(AlphaComposite.getInstance(3, 0.6f * origAlpha));

        // _0_1_69_62
        shape = new Ellipse2D.Double(2023.6007080078125, 606.7377319335938, 4, 4);
        g.fill(shape);

        // _0_1_69_63
        shape = new Ellipse2D.Double(2084.57763671875, 635.7137451171875, 5.0960001945495605, 5.0960001945495605);
        g.fill(shape);
        g.setComposite(AlphaComposite.getInstance(3, 1 * origAlpha));

        // _0_1_69_64
        shape = new Ellipse2D.Double(2087.600830078125, 568.7377319335938, 4, 4);
        g.fill(shape);

        // _0_1_69_65
        shape = new Ellipse2D.Double(1986.227783203125, 349.3647155761719, 1.7719999551773071, 1.7719999551773071);
        g.fill(shape);

        // _0_1_69_66
        shape = new Ellipse2D.Double(1935.227783203125, 301.3647155761719, 1.7719999551773071, 1.7719999551773071);
        g.fill(shape);

        // _0_1_69_67
        shape = new Ellipse2D.Double(1896.6187744140625, 323.7557067871094, 4.9720001220703125, 4.9720001220703125);
        g.fill(shape);

        // _0_1_69_68
        shape = new Ellipse2D.Double(1938.5777587890625, 35.71370315551758, 5.0960001945495605, 5.0960001945495605);
        g.fill(shape);

        // _0_1_69_69
        shape = new Ellipse2D.Double(1635.5777587890625, 96.71370697021484, 5.0960001945495605, 5.0960001945495605);
        g.fill(shape);

        // _0_1_69_70
        shape = new Ellipse2D.Double(1741.6007080078125, 121.73770141601562, 4, 4);
        g.fill(shape);

        // _0_1_69_71
        shape = new Ellipse2D.Double(1763.6007080078125, 76.73770141601562, 4, 4);
        g.fill(shape);

        // _0_1_69_72
        shape = new Ellipse2D.Double(1756.6007080078125, 213.73770141601562, 4, 4);
        g.fill(shape);
        g.setComposite(AlphaComposite.getInstance(3, 0.6f * origAlpha));

        // _0_1_69_73
        shape = new Ellipse2D.Double(1986.6187744140625, 94.75570678710938, 4.9720001220703125, 4.9720001220703125);
        g.fill(shape);
        g.setComposite(AlphaComposite.getInstance(3, 0.3f * origAlpha));

        // _0_1_69_74
        shape = new Ellipse2D.Double(2031.3057861328125, 437.44268798828125, 4.49399995803833, 4.49399995803833);
        g.fill(shape);
        g.setComposite(AlphaComposite.getInstance(3, 1 * origAlpha));

        // _0_1_69_75
        shape = new Ellipse2D.Double(1932.6007080078125, 496.7377014160156, 4, 4);
        g.fill(shape);

        // _0_1_69_76
        shape = new Ellipse2D.Double(1841.6007080078125, 548.7377319335938, 4, 4);
        g.fill(shape);

        // _0_1_69_77
        shape = new Ellipse2D.Double(1956.6007080078125, 436.7377014160156, 4, 4);
        g.fill(shape);
        g.setComposite(AlphaComposite.getInstance(3, 0.6f * origAlpha));

        // _0_1_69_78
        shape = new Ellipse2D.Double(2001.6007080078125, 524.7377319335938, 4, 4);
        g.fill(shape);
        g.setComposite(AlphaComposite.getInstance(3, 0.3f * origAlpha));

        // _0_1_69_79
        shape = new Ellipse2D.Double(2270.21875, 40.35570526123047, 1.6419999599456787, 1.6419999599456787);
        g.fill(shape);
        g.setComposite(AlphaComposite.getInstance(3, 1 * origAlpha));

        // _0_1_69_80
        shape = new Ellipse2D.Double(2209.013671875, 20.149703979492188, 2.813999891281128, 2.813999891281128);
        g.fill(shape);

        // _0_1_69_81
        shape = new Ellipse2D.Double(2290.07373046875, 136.20970153808594, 1.6, 1.6);
        g.fill(shape);

        // _0_1_69_82
        shape = new Ellipse2D.Double(2485.07373046875, 209.20970153808594, 1.6, 1.6);
        g.fill(shape);
        g.setComposite(AlphaComposite.getInstance(3, 0.3f * origAlpha));

        // _0_1_69_83
        shape = new Ellipse2D.Double(2189.600830078125, 193.73770141601562, 4, 4);
        g.fill(shape);
        g.setComposite(AlphaComposite.getInstance(3, 1 * origAlpha));

        // _0_1_69_84
        shape = new Ellipse2D.Double(2202.600830078125, 99.73770141601562, 4, 4);
        g.fill(shape);
        g.setComposite(AlphaComposite.getInstance(3, 0.3f * origAlpha));

        // _0_1_69_85
        shape = new Ellipse2D.Double(2228.600830078125, 225.73770141601562, 4, 4);
        g.fill(shape);
        g.setComposite(AlphaComposite.getInstance(3, 1 * origAlpha));

        // _0_1_69_86
        shape = new Ellipse2D.Double(2228.2568359375, 279.3937072753906, 2.187999963760376, 2.187999963760376);
        g.fill(shape);

        // _0_1_69_87
        shape = new Ellipse2D.Double(2297.171630859375, 225.30770874023438, 1.9700000286102295, 1.9700000286102295);
        g.fill(shape);

        // _0_1_69_88
        shape = new Ellipse2D.Double(2355.638671875, 358.77569580078125, 3.624000072479248, 3.624000072479248);
        g.fill(shape);

        // _0_1_69_89
        shape = new Ellipse2D.Double(2379.638671875, 506.77569580078125, 3.624000072479248, 3.624000072479248);
        g.fill(shape);

        // _0_1_69_90
        shape = new Ellipse2D.Double(2275.600830078125, 396.7377014160156, 4, 4);
        g.fill(shape);

        // _0_1_69_91
        shape = new Ellipse2D.Double(2271.600830078125, 322.7377014160156, 4, 4);
        g.fill(shape);

        // _0_1_69_92
        shape = new Ellipse2D.Double(2140.600830078125, 249.73770141601562, 4, 4);
        g.fill(shape);

        // _0_1_69_93
        shape = new Ellipse2D.Double(2099.600830078125, 121.73770141601562, 4, 4);
        g.fill(shape);

        // _0_1_69_94
        shape = new Ellipse2D.Double(2138.600830078125, 153.73770141601562, 4, 4);
        g.fill(shape);

        // _0_1_69_95
        shape = new Ellipse2D.Double(2103.2568359375, 206.39370727539062, 2.187999963760376, 2.187999963760376);
        g.fill(shape);

        // _0_1_69_96
        shape = new Ellipse2D.Double(2468.600830078125, 82.73770141601562, 4, 4);
        g.fill(shape);
        g.setComposite(AlphaComposite.getInstance(3, 0.6f * origAlpha));

        // _0_1_69_97
        shape = new Ellipse2D.Double(2220.600830078125, 482.7377014160156, 4, 4);
        g.fill(shape);
        g.setComposite(AlphaComposite.getInstance(3, 1 * origAlpha));

        // _0_1_69_98
        shape = new Ellipse2D.Double(2345.600830078125, 590.7377319335938, 4, 4);
        g.fill(shape);

        // _0_1_69_99
        shape = new Ellipse2D.Double(2381.600830078125, 629.7377319335938, 4, 4);
        g.fill(shape);

        // _0_1_69_100
        shape = new Ellipse2D.Double(2259.2568359375, 568.3937377929688, 2.187999963760376, 2.187999963760376);
        g.fill(shape);

        // _0_1_69_101
        shape = new Ellipse2D.Double(2171.600830078125, 538.7377319335938, 4, 4);
        g.fill(shape);

        // _0_1_69_102
        shape = new Ellipse2D.Double(2314.600830078125, 428.7377014160156, 4, 4);
        g.fill(shape);
        g.setComposite(AlphaComposite.getInstance(3, 0.6f * origAlpha));

        // _0_1_69_103
        shape = new Ellipse2D.Double(2169.600830078125, 417.7377014160156, 4, 4);
        g.fill(shape);
        g.setComposite(AlphaComposite.getInstance(3, 0.8f * origAlpha));

        // _0_1_69_104
        shape = new Ellipse2D.Double(2201.600830078125, 362.7377014160156, 7, 7);
        g.fill(shape);
        g.setComposite(AlphaComposite.getInstance(3, 0.6f * origAlpha));

        // _0_1_69_105
        shape = new Ellipse2D.Double(2286.600830078125, 497.7377014160156, 7, 7);
        g.fill(shape);
        g.setComposite(AlphaComposite.getInstance(3, 1 * origAlpha));

        // _0_1_69_106
        shape = new Ellipse2D.Double(2116.21875, 553.355712890625, 1.6419999599456787, 1.6419999599456787);
        g.fill(shape);

        // _0_1_69_107
        shape = new Ellipse2D.Double(2123.013671875, 416.1496887207031, 2.813999891281128, 2.813999891281128);
        g.fill(shape);

        // _0_1_69_108
        shape = new Ellipse2D.Double(2264.07373046875, 613.209716796875, 1.6, 1.6);
        g.fill(shape);

        // _0_1_69_109
        shape = new Ellipse2D.Double(2561.07373046875, 683.209716796875, 1.6, 1.6);
        g.fill(shape);

        // _0_1_69_110
        shape = new Ellipse2D.Double(2337.07373046875, 700.209716796875, 1.6, 1.6);
        g.fill(shape);
        g.setComposite(AlphaComposite.getInstance(3, 0.3f * origAlpha));

        // _0_1_69_111
        shape = new Ellipse2D.Double(2094.07373046875, 74.20970916748047, 1.6, 1.6);
        g.fill(shape);

        // _0_1_69_112
        shape = new Ellipse2D.Double(2163.600830078125, 670.7377319335938, 4, 4);
        g.fill(shape);

        // _0_1_69_113
        shape = new Ellipse2D.Double(2130.600830078125, 702.7377319335938, 4, 4);
        g.fill(shape);
        g.setComposite(AlphaComposite.getInstance(3, 1 * origAlpha));

        // _0_1_69_114
        shape = new Ellipse2D.Double(2152.600830078125, 739.7377319335938, 4, 4);
        g.fill(shape);

        // _0_1_69_115
        shape = new Ellipse2D.Double(2550.600830078125, 155.73770141601562, 4, 4);
        g.fill(shape);

        // _0_1_69_116
        shape = new Ellipse2D.Double(2424.600830078125, 151.73770141601562, 4, 4);
        g.fill(shape);

        // _0_1_69_117
        shape = new Ellipse2D.Double(2187.600830078125, 610.7377319335938, 4, 4);
        g.fill(shape);

        // _0_1_69_118
        shape = new Ellipse2D.Double(2218.600830078125, 721.7377319335938, 4, 4);
        g.fill(shape);

        // _0_1_69_119
        shape = new Ellipse2D.Double(2220.600830078125, 668.7377319335938, 4, 4);
        g.fill(shape);

        // _0_1_69_120
        shape = new Ellipse2D.Double(2096.2568359375, 459.3937072753906, 2.187999963760376, 2.187999963760376);
        g.fill(shape);

        // _0_1_69_121
        shape = new Ellipse2D.Double(2271.171630859375, 702.3077392578125, 1.9700000286102295, 1.9700000286102295);
        g.fill(shape);

        // _0_1_69_122
        shape = new Ellipse2D.Double(2315.171630859375, 743.3077392578125, 1.9700000286102295, 1.9700000286102295);
        g.fill(shape);

        // _0_1_69_123
        shape = new Ellipse2D.Double(2133.171630859375, 609.3077392578125, 1.9700000286102295, 1.9700000286102295);
        g.fill(shape);

        // _0_1_69_124
        shape = new Ellipse2D.Double(2589.638671875, 625.7756958007812, 3.624000072479248, 3.624000072479248);
        g.fill(shape);
        g.setComposite(AlphaComposite.getInstance(3, 0.3f * origAlpha));

        // _0_1_69_125
        shape = new Ellipse2D.Double(2649.638671875, 698.7756958007812, 3.624000072479248, 3.624000072479248);
        g.fill(shape);
        g.setComposite(AlphaComposite.getInstance(3, 1 * origAlpha));

        // _0_1_69_126
        shape = new Ellipse2D.Double(2726.600830078125, 719.7377319335938, 4, 4);
        g.fill(shape);

        // _0_1_69_127
        shape = new Ellipse2D.Double(2459.07373046875, 739.209716796875, 1.6, 1.6);
        g.fill(shape);
        g.setComposite(AlphaComposite.getInstance(3, 0.3f * origAlpha));

        // _0_1_69_128
        shape = new Ellipse2D.Double(2709.638671875, 756.7756958007812, 3.624000072479248, 3.624000072479248);
        g.fill(shape);

        // _0_1_69_129
        shape = new Ellipse2D.Double(2493.600830078125, 687.7377319335938, 4, 4);
        g.fill(shape);
        g.setComposite(AlphaComposite.getInstance(3, 0.6f * origAlpha));

        // _0_1_69_130
        shape = new Ellipse2D.Double(2517.600830078125, 627.7377319335938, 4, 4);
        g.fill(shape);
        g.setComposite(AlphaComposite.getInstance(3, 1 * origAlpha));

        // _0_1_69_131
        shape = new Ellipse2D.Double(2548.600830078125, 561.7377319335938, 4, 4);
        g.fill(shape);
        g.setComposite(AlphaComposite.getInstance(3, 0.3f * origAlpha));

        // _0_1_69_132
        shape = new Ellipse2D.Double(2532.600830078125, 719.7377319335938, 4, 4);
        g.fill(shape);
        g.setComposite(AlphaComposite.getInstance(3, 1 * origAlpha));

        // _0_1_69_133
        shape = new Ellipse2D.Double(2419.600830078125, 653.7377319335938, 7, 7);
        g.fill(shape);

        // _0_1_69_134
        shape = new Ellipse2D.Double(2646.456787109375, 191.5937042236328, 4.50600004196167, 4.50600004196167);
        g.fill(shape);

        // _0_1_69_135
        shape = new Ellipse2D.Double(2565.57763671875, 234.7136993408203, 5.0960001945495605, 5.0960001945495605);
        g.fill(shape);

        // _0_1_69_136
        shape = new Ellipse2D.Double(2677.57763671875, 83.71370697021484, 5.0960001945495605, 5.0960001945495605);
        g.fill(shape);
        g.setComposite(AlphaComposite.getInstance(3, 0.6f * origAlpha));

        // _0_1_69_137
        shape = new Ellipse2D.Double(2402.600830078125, 398.7377014160156, 4, 4);
        g.fill(shape);
        g.setComposite(AlphaComposite.getInstance(3, 1 * origAlpha));

        // _0_1_69_138
        shape = new Ellipse2D.Double(2653.600830078125, 298.7377014160156, 4, 4);
        g.fill(shape);

        // _0_1_69_139
        shape = new Ellipse2D.Double(2258.456787109375, 186.5937042236328, 4.50600004196167, 4.50600004196167);
        g.fill(shape);

        // _0_1_69_140
        shape = new Ellipse2D.Double(2412.57763671875, 279.7137145996094, 5.0960001945495605, 5.0960001945495605);
        g.fill(shape);
        g.setComposite(AlphaComposite.getInstance(3, 0.6f * origAlpha));

        // _0_1_69_141
        shape = new Ellipse2D.Double(2463.57763671875, 427.7137145996094, 5.0960001945495605, 5.0960001945495605);
        g.fill(shape);

        // _0_1_69_142
        shape = new Ellipse2D.Double(2492.57763671875, 481.7137145996094, 5.0960001945495605, 5.0960001945495605);
        g.fill(shape);
        g.setComposite(AlphaComposite.getInstance(3, 0.8f * origAlpha));

        // _0_1_69_143
        shape = new Ellipse2D.Double(2091.600830078125, 360.7377014160156, 4, 4);
        g.fill(shape);
        g.setComposite(AlphaComposite.getInstance(3, 1 * origAlpha));

        // _0_1_69_144
        shape = new Ellipse2D.Double(2466.600830078125, 360.7377014160156, 4, 4);
        g.fill(shape);

        // _0_1_69_145
        shape = new Ellipse2D.Double(2606.227783203125, 349.3647155761719, 1.7719999551773071, 1.7719999551773071);
        g.fill(shape);

        // _0_1_69_146
        shape = new Ellipse2D.Double(2555.227783203125, 301.3647155761719, 1.7719999551773071, 1.7719999551773071);
        g.fill(shape);

        // _0_1_69_147
        shape = new Ellipse2D.Double(2502.61865234375, 275.7557067871094, 4.9720001220703125, 4.9720001220703125);
        g.fill(shape);

        // _0_1_69_148
        shape = new Ellipse2D.Double(2558.57763671875, 35.71370315551758, 5.0960001945495605, 5.0960001945495605);
        g.fill(shape);

        // _0_1_69_149
        shape = new Ellipse2D.Double(2255.57763671875, 96.71370697021484, 5.0960001945495605, 5.0960001945495605);
        g.fill(shape);

        // _0_1_69_150
        shape = new Ellipse2D.Double(2361.600830078125, 121.73770141601562, 4, 4);
        g.fill(shape);

        // _0_1_69_151
        shape = new Ellipse2D.Double(2383.600830078125, 76.73770141601562, 4, 4);
        g.fill(shape);

        // _0_1_69_152
        shape = new Ellipse2D.Double(2376.600830078125, 213.73770141601562, 4, 4);
        g.fill(shape);
        g.setComposite(AlphaComposite.getInstance(3, 0.6f * origAlpha));

        // _0_1_69_153
        shape = new Ellipse2D.Double(2606.61865234375, 94.75570678710938, 4.9720001220703125, 4.9720001220703125);
        g.fill(shape);
        g.setComposite(AlphaComposite.getInstance(3, 0.3f * origAlpha));

        // _0_1_69_154
        shape = new Ellipse2D.Double(2651.3056640625, 437.44268798828125, 4.49399995803833, 4.49399995803833);
        g.fill(shape);
        g.setComposite(AlphaComposite.getInstance(3, 1 * origAlpha));

        // _0_1_69_155
        shape = new Ellipse2D.Double(2552.600830078125, 496.7377014160156, 4, 4);
        g.fill(shape);

        // _0_1_69_156
        shape = new Ellipse2D.Double(2461.600830078125, 548.7377319335938, 4, 4);
        g.fill(shape);

        // _0_1_69_157
        shape = new Ellipse2D.Double(2576.600830078125, 436.7377014160156, 4, 4);
        g.fill(shape);
        g.setComposite(AlphaComposite.getInstance(3, 0.6f * origAlpha));

        // _0_1_69_158
        shape = new Ellipse2D.Double(2531.600830078125, 360.7377014160156, 4, 4);
        g.fill(shape);

        // _0_1_69_159
        shape = new Ellipse2D.Double(2592.57763671875, 389.7137145996094, 5.0960001945495605, 5.0960001945495605);
        g.fill(shape);
        g.setComposite(AlphaComposite.getInstance(3, 1 * origAlpha));

        // _0_1_69_160
        shape = new Ellipse2D.Double(2705.600830078125, 398.7377014160156, 4, 4);
        g.fill(shape);
        g.setComposite(AlphaComposite.getInstance(3, 0.6f * origAlpha));

        // _0_1_69_161
        shape = new Ellipse2D.Double(2621.600830078125, 524.7377319335938, 4, 4);
        g.fill(shape);
        g.setComposite(AlphaComposite.getInstance(3, 1 * origAlpha));

        // _0_1_69_162
        shape = new GeneralPath();
        ((GeneralPath) shape).moveTo(2428.8406, 608.35266);
        ((GeneralPath) shape).lineTo(2428.8616, 608.28174);
        ((GeneralPath) shape).curveTo(2429.5076, 608.10675, 2430.1465, 608.01874, 2430.7695, 608.35266);
        ((GeneralPath) shape).curveTo(2430.1265, 608.35266, 2429.4814, 608.35266, 2428.8406, 608.35266);
        ((GeneralPath) shape).closePath();

        g.setPaint(new Color(0xB44E00));
        g.fill(shape);

        // _0_1_69_163
        shape = new GeneralPath();
        ((GeneralPath) shape).moveTo(2446.6907, 608.2396);
        ((GeneralPath) shape).lineTo(2446.7947, 608.25366);
        ((GeneralPath) shape).lineTo(2446.7595, 608.3546);
        ((GeneralPath) shape).curveTo(2446.1165, 608.3546, 2445.4746, 608.3546, 2444.8296, 608.3546);
        ((GeneralPath) shape).curveTo(2445.4326, 608.0026, 2446.0635, 608.1487, 2446.6907, 608.2396);
        ((GeneralPath) shape).closePath();

        g.fill(shape);

        // _0_1_70
        g.setComposite(AlphaComposite.getInstance(3, 0.3f * origAlpha));

        // _0_1_70_0
        shape = new Ellipse2D.Double(2828.0546875, -36.7804069519043, 1.6419999599456787, 1.6419999599456787);
        g.setPaint(darkGray);
        g.fill(shape);
        g.setComposite(AlphaComposite.getInstance(3, 1 * origAlpha));

        // _0_1_70_1
        shape = new Ellipse2D.Double(2766.849609375, -56.986412048339844, 2.813999891281128, 2.813999891281128);
        g.fill(shape);

        // _0_1_70_2
        shape = new Ellipse2D.Double(2847.90966796875, 59.07359313964844, 1.6, 1.6);
        g.fill(shape);
        g.setComposite(AlphaComposite.getInstance(3, 0.2f * origAlpha));

        // _0_1_70_3
        shape = new Ellipse2D.Double(2716.90966796875, -34.92640686035156, 1.6, 1.6);
        g.fill(shape);
        g.setComposite(AlphaComposite.getInstance(3, 1 * origAlpha));

        // _0_1_70_4
        shape = new Ellipse2D.Double(3069.90966796875, 183.07359313964844, 1.6, 1.6);
        g.fill(shape);
        g.setComposite(AlphaComposite.getInstance(3, 0.3f * origAlpha));

        // _0_1_70_5
        shape = new Ellipse2D.Double(2747.4365234375, 116.60159301757812, 4, 4);
        g.fill(shape);
        g.setComposite(AlphaComposite.getInstance(3, 1 * origAlpha));

        // _0_1_70_6
        shape = new Ellipse2D.Double(2760.4365234375, 22.601591110229492, 4, 4);
        g.fill(shape);
        g.setComposite(AlphaComposite.getInstance(3, 0.3f * origAlpha));

        // _0_1_70_7
        shape = new Ellipse2D.Double(2786.4365234375, 148.60159301757812, 4, 4);
        g.fill(shape);
        g.setComposite(AlphaComposite.getInstance(3, 1 * origAlpha));

        // _0_1_70_8
        shape = new Ellipse2D.Double(2786.092529296875, 202.25759887695312, 2.187999963760376, 2.187999963760376);
        g.fill(shape);

        // _0_1_70_9
        shape = new Ellipse2D.Double(2855.007568359375, 148.1715850830078, 1.9700000286102295, 1.9700000286102295);
        g.fill(shape);

        // _0_1_70_10
        shape = new Ellipse2D.Double(2913.474609375, 281.63958740234375, 3.624000072479248, 3.624000072479248);
        g.fill(shape);

        // _0_1_70_11
        shape = new Ellipse2D.Double(2937.474609375, 429.63958740234375, 3.624000072479248, 3.624000072479248);
        g.fill(shape);

        // _0_1_70_12
        shape = new Ellipse2D.Double(2833.4365234375, 319.6015930175781, 4, 4);
        g.fill(shape);

        // _0_1_70_13
        shape = new Ellipse2D.Double(2829.4365234375, 245.60159301757812, 4, 4);
        g.fill(shape);

        // _0_1_70_14
        shape = new Ellipse2D.Double(2698.4365234375, 172.60159301757812, 4, 4);
        g.fill(shape);

        // _0_1_70_15
        shape = new Ellipse2D.Double(2696.4365234375, 76.60159301757812, 4, 4);
        g.fill(shape);

        // _0_1_70_16
        shape = new Ellipse2D.Double(3026.4365234375, 5.601591110229492, 4, 4);
        g.fill(shape);
        g.setComposite(AlphaComposite.getInstance(3, 0.6f * origAlpha));

        // _0_1_70_17
        shape = new Ellipse2D.Double(2778.4365234375, 405.6015930175781, 4, 4);
        g.fill(shape);
        g.setComposite(AlphaComposite.getInstance(3, 1 * origAlpha));

        // _0_1_70_18
        shape = new Ellipse2D.Double(2903.4365234375, 513.6015625, 4, 4);
        g.fill(shape);

        // _0_1_70_19
        shape = new Ellipse2D.Double(2939.4365234375, 552.6015625, 4, 4);
        g.fill(shape);

        // _0_1_70_20
        shape = new Ellipse2D.Double(2817.092529296875, 491.2575988769531, 2.187999963760376, 2.187999963760376);
        g.fill(shape);

        // _0_1_70_21
        shape = new Ellipse2D.Double(2729.4365234375, 461.6015930175781, 4, 4);
        g.fill(shape);

        // _0_1_70_22
        shape = new Ellipse2D.Double(2872.4365234375, 351.6015930175781, 4, 4);
        g.fill(shape);
